{"learner":{"attributes":{"scikit_learn":"{\"_estimator_type\": \"classifier\"}"},"feature_names":[],"feature_types":[],"gradient_booster":{"model":{"gbtree_model_param":{"num_parallel_tree":"1","num_trees":"240"},"iteration_indptr":[0,3,6,9,12,15,18,21,24,27,30,33,36,39,42,45,48,51,54,57,60,63,66,69,72,75,78,81,84,87,90,93,96,99,102,105,108,111,114,117,120,123,126,129,132,135,138,141,144,147,150,153,156,159,162,165,168,171,174,177,180,183,186,189,192,195,198,201,204,207,210,213,216,219,222,225,228,231,234,237,240],"tree_info":[0,1,2,0,1,2,0,1,2,0,1,2,0,1,2,0,1,2,0,1,2,0,1,2,0,1,2,0,1,2,0,1,2,0,1,2,0,1,2,0,1,2,0,1,2,0,1,2,0,1,2,0,1,2,0,1,2,0,1,2,0,1,2,0,1,2,0,1,2,0,1,2,0,1,2,0,1,2,0,1,2,0,1,2,0,1,2,0,1,2,0,1,2,0,1,2,0,1,2,0,1,2,0,1,2,0,1,2,0,1,2,0,1,2,0,1,2,0,1,2,0,1,2,0,1,2,0,1,2,0,1,2,0,1,2,0,1,2,0,1,2,0,1,2,0,1,2,0,1,2,0,1,2,0,1,2,0,1,2,0,1,2,0,1,2,0,1,2,0,1,2,0,1,2,0,1,2,0,1,2,0,1,2,0,1,2,0,1,2,0,1,2,0,1,2,0,1,2,0,1,2,0,1,2,0,1,2,0,1,2,0,1,2,0,1,2,0,1,2,0,1,2,0,1,2,0,1,2,0,1,2,0,1,2,0,1,2,0,1,2],"trees":[{"base_weights":[-4.467814E-8,-3.8055727E-1,1.1033636E0,2.0261823E-1,-6.1191916E-1,1.37121E0,-6.2386984E-1,5.39485E-2,-1.3061227E-2,-3.517085E-2,-1.9722775E-2,1.5789472E-2,7.044053E-2,5.1724136E-2,-3.517824E-2],"categories":[],"categories_nodes":[],"categories_segments":[],"categories_sizes":[],"default_left":[0,0,0,0,0,0,0,0,0,0,0,0,0,0,0],"id":0,"left_children":[1,3,5,7,9,11,13,-1,-1,-1,-1,-1,-1,-1,-1],"loss_changes":[7.4097107E2,1.7716006E2,2.1022272E2,1.5208305E2,1.8419495E1,1.5115845E1,8.848465E0,0E0,0E0,0E0,0E0,0E0,0E0,0E0,0E0],"parents":[2147483647,0,0,1,1,2,2,3,3,4,4,5,5,6,6],"right_children":[2,4,6,8,10,12,14,-1,-1,-1,-1,-1,-1,-1,-1],"split_conditions":[1.8181819E-1,6.8844676E-1,5.014377E-1,3.5301733E-1,5.555556E-1,1.088389E-1,7.2462016E-1,5.39485E-2,-1.3061227E-2,-3.517085E-2,-1.9722775E-2,1.5789472E-2,7.044053E-2,5.1724136E-2,-3.517824E-2],"split_indices":[1,7,6,13,3,8,11,0,0,0,0,0,0,0,0],"split_type":[0,0,0,0,0,0,0,0,0,0,0,0,0,0,0],"sum_hessian":[1.7626665E3,1.3111111E3,4.5155554E2,3.7244443E2,9.386666E2,3.9111108E2,6.0444443E1,1.2844444E2,2.4399998E2,6.591111E2,2.7955554E2,1.3777777E1,3.773333E2,2.222222E0,5.8222218E1],"tree_param":{"num_deleted":"0","num_feature":"19","num_nodes":"15","size_leaf_vector":"1"}},{"base_weights":[-4.467814E-8,-6.325704E-1,5.8710694E-1,-6.8164486E-1,-2.0797271E-2,-5.6265163E-1,7.8927094E-1,-3.445343E-2,5.454546E-2,5.27897E-2,-3.6543913E-2,-3.4700464E-2,1.7701862E-2,5.0958884E-3,5.1473137E-2],"categories":[],"categories_nodes":[],"categories_segments":[],"categories_sizes":[],"default_left":[0,0,0,0,0,0,0,0,0,0,0,0,0,0,0],"id":1,"left_children":[1,3,5,7,9,11,13,-1,-1,-1,-1,-1,-1,-1,-1],"loss_changes":[6.553733E2,2.548822E1,2.131781E2,1.109906E1,4.9782482E1,1.6795956E1,1.2846863E2,0E0,0E0,0E0,0E0,0E0,0E0,0E0,0E0],"parents":[2147483647,0,0,1,1,2,2,3,3,4,4,5,5,6,6],"right_children":[2,4,6,8,10,12,14,-1,-1,-1,-1,-1,-1,-1,-1],"split_conditions":[3.6231104E-2,8.947763E-1,2.1650879E-1,9.0709156E-1,2.8226203E-1,1.3284719E-1,5.678162E-1,-3.445343E-2,5.454546E-2,5.27897E-2,-3.6543913E-2,-3.4700464E-2,1.7701862E-2,5.0958884E-3,5.1473137E-2],"split_indices":[9,16,10,0,1,14,0,0,0,0,0,0,0,0,0],"split_type":[0,0,0,0,0,0,0,0,0,0,0,0,0,0,0],"sum_hessian":[1.7626665E3,8.484444E2,9.1422217E2,7.853333E2,6.3111107E1,1.3644444E2,7.777777E2,7.826666E2,2.6666665E0,2.4888887E1,3.822222E1,1.1955555E2,1.6888887E1,2.0177777E2,5.7599994E2],"tree_param":{"num_deleted":"0","num_feature":"19","num_nodes":"15","size_leaf_vector":"1"}},{"base_weights":[-4.467814E-8,1.118495E0,-3.8832816E-1,-4.195805E-1,1.2953988E0,-5.9188956E-1,7.9274607E-1,-3.651027E-2,3.556701E-2,7.034762E-2,9.130433E-3,-3.3997323E-2,6.221819E-3,6.77561E-2,-8.3217974E-4],"categories":[],"categories_nodes":[],"categories_segments":[],"categories_sizes":[],"default_left":[0,0,0,0,0,0,0,0,0,0,0,0,0,0,0],"id":2,"left_children":[1,3,5,7,9,11,13,-1,-1,-1,-1,-1,-1,-1,-1],"loss_changes":[7.6647064E2,1.2428473E2,3.1539417E2,1.7264347E1,5.0404114E1,7.0598206E1,8.787251E1,0E0,0E0,0E0,0E0,0E0,0E0,0E0,0E0],"parents":[2147483647,0,0,1,1,2,2,3,3,4,4,5,5,6,6],"right_children":[2,4,6,8,10,12,14,-1,-1,-1,-1,-1,-1,-1,-1],"split_conditions":[2.3913044E-1,1.330643E-1,1E0,1E0,2.9545453E-1,9.6428686E-1,2.1650879E-1,-3.651027E-2,3.556701E-2,7.034762E-2,9.130433E-3,-3.3997323E-2,6.221819E-3,6.77561E-2,-8.3217974E-4],"split_indices":[16,7,9,6,12,7,10,0,0,0,0,0,0,0,0],"split_type":[0,0,0,0,0,0,0,0,0,0,0,0,0,0,0],"sum_hessian":[1.7626665E3,4.5377774E2,1.3088888E3,4.6666664E1,4.0711108E2,1.1168888E3,1.9199998E2,3.6888885E1,9.777777E0,3.6977777E2,3.7333332E1,9.946666E2,1.2222221E2,1.12888885E2,7.911111E1],"tree_param":{"num_deleted":"0","num_feature":"19","num_nodes":"15","size_leaf_vector":"1"}},{"base_weights":[8.681628E-6,-3.706528E-1,1.0397218E0,1.9502708E-1,-5.9934735E-1,1.2846589E0,-6.115469E-1,5.0007563E-2,-1.3307738E-2,-3.454481E-2,-1.9154184E-2,1.5340202E-2,6.592996E-2,4.9880568E-2,-3.4565978E-2],"categories":[],"categories_nodes":[],"categories_segments":[],"categories_sizes":[],"default_left":[0,0,0,0,0,0,0,0,0,0,0,0,0,0,0],"id":3,"left_children":[1,3,5,7,9,11,13,-1,-1,-1,-1,-1,-1,-1,-1],"loss_changes":[6.794832E2,1.6826553E2,1.8820004E2,1.39488E2,1.8065369E1,1.2998291E1,8.460018E0,0E0,0E0,0E0,0E0,0E0,0E0,0E0,0E0],"parents":[2147483647,0,0,1,1,2,2,3,3,4,4,5,5,6,6],"right_children":[2,4,6,8,10,12,14,-1,-1,-1,-1,-1,-1,-1,-1],"split_conditions":[1.8181819E-1,6.8844676E-1,5.014377E-1,3.6841926E-1,5.555556E-1,1.088389E-1,7.2462016E-1,5.0007563E-2,-1.3307738E-2,-3.454481E-2,-1.9154184E-2,1.5340202E-2,6.592996E-2,4.9880568E-2,-3.4565978E-2],"split_indices":[1,7,6,13,3,8,11,0,0,0,0,0,0,0,0],"split_type":[0,0,0,0,0,0,0,0,0,0,0,0,0,0,0],"sum_hessian":[1.7611438E3,1.2987709E3,4.6237292E2,3.7394897E2,9.248219E2,4.0284055E2,5.953239E1,1.3576457E2,2.3818439E2,6.4822156E2,2.7660034E2,1.3849827E1,3.8899072E2,2.2684276E0,5.726396E1],"tree_param":{"num_deleted":"0","num_feature":"19","num_nodes":"15","size_leaf_vector":"1"}},{"base_weights":[4.8011218E-5,-6.6025E-1,5.24912E-1,-6.8875164E-1,-2.2913817E-1,-1.1859944E-1,8.373084E-1,-3.463544E-2,4.12744E-2,4.730874E-2,-3.5791367E-2,-2.2755552E-2,2.3577593E-2,-2.4479633E-2,4.7322657E-2],"categories":[],"categories_nodes":[],"categories_segments":[],"categories_sizes":[],"default_left":[0,0,0,0,0,0,0,0,0,0,0,0,0,0,0],"id":4,"left_children":[1,3,5,7,9,11,13,-1,-1,-1,-1,-1,-1,-1,-1],"loss_changes":[6.110743E2,9.437012E0,1.9758319E2,4.9577026E0,2.9233093E1,6.414482E1,9.6256134E1,0E0,0E0,0E0,0E0,0E0,0E0,0E0,0E0],"parents":[2147483647,0,0,1,1,2,2,3,3,4,4,5,5,6,6],"right_children":[2,4,6,8,10,12,14,-1,-1,-1,-1,-1,-1,-1,-1],"split_conditions":[2.7995293E-3,8.947763E-1,5.907215E-1,9.0709156E-1,2.8226203E-1,4.7181394E-2,2.1258003E-1,-3.463544E-2,4.12744E-2,4.730874E-2,-3.5791367E-2,-2.2755552E-2,2.3577593E-2,-2.4479633E-2,4.7322657E-2],"split_indices":[9,16,0,0,1,2,10,0,0,0,0,0,0,0,0],"split_type":[0,0,0,0,0,0,0,0,0,0,0,0,0,0,0],"sum_hessian":[1.7612229E3,7.798656E2,9.813573E2,7.309439E2,4.8921665E1,3.2091617E2,6.6044116E2,7.2957983E2,1.3640805E0,1.40494175E1,3.487225E1,2.0452327E2,1.1639288E2,4.993103E1,6.1051013E2],"tree_param":{"num_deleted":"0","num_feature":"19","num_nodes":"15","size_leaf_vector":"1"}},{"base_weights":[-5.672019E-5,1.053157E0,-3.7836125E-1,-4.0951708E-1,1.2150817E0,-5.7937247E-1,7.5138676E-1,-3.588025E-2,3.3771623E-2,2.1868553E-2,6.765344E-2,-3.3359557E-2,6.127344E-3,6.320744E-2,-6.144805E-4],"categories":[],"categories_nodes":[],"categories_segments":[],"categories_sizes":[],"default_left":[0,0,0,0,0,0,0,0,0,0,0,0,0,0,0],"id":5,"left_children":[1,3,5,7,9,11,13,-1,-1,-1,-1,-1,-1,-1,-1],"loss_changes":[7.0245703E2,1.1084631E2,2.9500165E2,1.6257055E1,4.445099E1,6.799597E1,7.690931E1,0E0,0E0,0E0,0E0,0E0,0E0,0E0,0E0],"parents":[2147483647,0,0,1,1,2,2,3,3,4,4,5,5,6,6],"right_children":[2,4,6,8,10,12,14,-1,-1,-1,-1,-1,-1,-1,-1],"split_conditions":[2.3913044E-1,1.330643E-1,1E0,1E0,3.885508E-1,9.6428686E-1,2.1650879E-1,-3.588025E-2,3.3771623E-2,2.1868553E-2,6.765344E-2,-3.3359557E-2,6.127344E-3,6.320744E-2,-6.144805E-4],"split_indices":[16,7,9,6,8,7,10,0,0,0,0,0,0,0,0],"split_type":[0,0,0,0,0,0,0,0,0,0,0,0,0,0,0],"sum_hessian":[1.7610381E3,4.649147E2,1.2961234E3,4.618593E1,4.1872876E2,1.1007576E3,1.9536584E2,3.6235023E1,9.950903E0,6.3726852E1,3.5500192E2,9.7839746E2,1.2236005E2,1.16492744E2,7.887311E1],"tree_param":{"num_deleted":"0","num_feature":"19","num_nodes":"15","size_leaf_vector":"1"}},{"base_weights":[1.9578989E-5,-3.6119473E-1,9.8423964E-1,1.8725182E-1,-5.8716303E-1,1.2098488E0,-5.9946656E-1,4.7324866E-2,-1.2951826E-2,-3.39448E-2,-1.8596701E-2,6.2266774E-2,1.937349E-2,4.817385E-2,-3.396848E-2],"categories":[],"categories_nodes":[],"categories_segments":[],"categories_sizes":[],"default_left":[0,0,0,0,0,0,0,0,0,0,0,0,0,0,0],"id":6,"left_children":[1,3,5,7,9,11,13,-1,-1,-1,-1,-1,-1,-1,-1],"loss_changes":[6.252481E2,1.5955339E2,1.694307E2,1.2770484E2,1.7741486E1,1.158844E1,8.090755E0,0E0,0E0,0E0,0E0,0E0,0E0,0E0,0E0],"parents":[2147483647,0,0,1,1,2,2,3,3,4,4,5,5,6,6],"right_children":[2,4,6,8,10,12,14,-1,-1,-1,-1,-1,-1,-1,-1],"split_conditions":[1.8181819E-1,6.8844676E-1,5.014377E-1,3.6841926E-1,5.555556E-1,9.6768844E-1,7.2462016E-1,4.7324866E-2,-1.2951826E-2,-3.39448E-2,-1.8596701E-2,6.2266774E-2,1.937349E-2,4.817385E-2,-3.396848E-2],"split_indices":[1,7,6,13,3,0,11,0,0,0,0,0,0,0,0],"split_type":[0,0,0,0,0,0,0,0,0,0,0,0,0,0,0],"sum_hessian":[1.756714E3,1.2855448E3,4.711692E2,3.7516205E2,9.1038275E2,4.1262427E2,5.854492E1,1.3846999E2,2.3669208E2,6.36812E2,2.7357077E2,3.950625E2,1.756178E1,2.3096135E0,5.623531E1],"tree_param":{"num_deleted":"0","num_feature":"19","num_nodes":"15","size_leaf_vector":"1"}},{"base_weights":[1.0237478E-4,-6.4746183E-1,5.0010157E-1,-6.7599744E-1,-2.1986541E-1,-1.158114E-1,7.93259E-1,-3.399865E-2,4.0040787E-2,4.5314725E-2,-3.514638E-2,-2.2240127E-2,2.2437766E-2,-2.3867814E-2,4.4718347E-2],"categories":[],"categories_nodes":[],"categories_segments":[],"categories_sizes":[],"default_left":[0,0,0,0,0,0,0,0,0,0,0,0,0,0,0],"id":7,"left_children":[1,3,5,7,9,11,13,-1,-1,-1,-1,-1,-1,-1,-1],"loss_changes":[5.696042E2,9.204041E0,1.7933704E2,4.760437E0,2.7529657E1,5.982238E1,8.685016E1,0E0,0E0,0E0,0E0,0E0,0E0,0E0,0E0],"parents":[2147483647,0,0,1,1,2,2,3,3,4,4,5,5,6,6],"right_children":[2,4,6,8,10,12,14,-1,-1,-1,-1,-1,-1,-1,-1],"split_conditions":[2.7995293E-3,8.947763E-1,5.907215E-1,9.0709156E-1,2.8226203E-1,4.7181394E-2,2.1258003E-1,-3.399865E-2,4.0040787E-2,4.5314725E-2,-3.514638E-2,-2.2240127E-2,2.2437766E-2,-2.3867814E-2,4.4718347E-2],"split_indices":[9,16,0,0,1,2,10,0,0,0,0,0,0,0,0],"split_type":[0,0,0,0,0,0,0,0,0,0,0,0,0,0,0],"sum_hessian":[1.7572235E3,7.655027E2,9.917208E2,7.1706824E2,4.8434437E1,3.200057E2,6.717151E2,7.156812E2,1.387042E0,1.4276224E1,3.4158215E1,2.0231967E2,1.1768603E2,4.9236923E1,6.2247815E2],"tree_param":{"num_deleted":"0","num_feature":"19","num_nodes":"15","size_leaf_vector":"1"}},{"base_weights":[-1.2201735E-4,9.9527436E-1,-3.687997E-1,-4.004451E-1,1.1446418E0,-5.675028E-1,7.168702E-1,-3.530461E-2,3.2107327E-2,6.2020153E-2,7.6565198E-3,-3.276048E-2,6.047981E-3,5.959096E-2,-4.4822783E-4],"categories":[],"categories_nodes":[],"categories_segments":[],"categories_sizes":[],"default_left":[0,0,0,0,0,0,0,0,0,0,0,0,0,0,0],"id":8,"left_children":[1,3,5,7,9,11,13,-1,-1,-1,-1,-1,-1,-1,-1],"loss_changes":[6.45277E2,9.953378E1,2.7720532E2,1.5329773E1,4.0595703E1,6.560388E1,6.8595055E1,0E0,0E0,0E0,0E0,0E0,0E0,0E0,0E0],"parents":[2147483647,0,0,1,1,2,2,3,3,4,4,5,5,6,6],"right_children":[2,4,6,8,10,12,14,-1,-1,-1,-1,-1,-1,-1,-1],"split_conditions":[2.3913044E-1,1.330643E-1,1E0,1E0,2.9545453E-1,9.6428686E-1,2.1650879E-1,-3.530461E-2,3.2107327E-2,6.2020153E-2,7.6565198E-3,-3.276048E-2,6.047981E-3,5.959096E-2,-4.4822783E-4],"split_indices":[16,7,9,6,12,7,10,0,0,0,0,0,0,0,0],"split_type":[0,0,0,0,0,0,0,0,0,0,0,0,0,0,0],"sum_hessian":[1.7563413E3,4.7423907E2,1.2821022E3,4.568336E1,4.2855573E2,1.0841538E3,1.9794838E2,3.5576485E1,1.0106879E1,3.9058185E2,3.7973885E1,9.616878E2,1.22466034E2,1.192653E2,7.868308E1],"tree_param":{"num_deleted":"0","num_feature":"19","num_nodes":"15","size_leaf_vector":"1"}},{"base_weights":[3.4726083E-5,-3.520997E-1,9.351501E-1,1.5819222E-1,-5.8515984E-1,1.1443896E0,-5.8813673E-1,4.2925335E-2,-1.2343721E-2,-3.3803288E-2,-1.8488582E-2,1.35535225E-2,5.8699667E-2,4.6601247E-2,-3.3409595E-2],"categories":[],"categories_nodes":[],"categories_segments":[],"categories_sizes":[],"default_left":[0,0,0,0,0,0,0,0,0,0,0,0,0,0,0],"id":9,"left_children":[1,3,5,7,9,11,13,-1,-1,-1,-1,-1,-1,-1,-1],"loss_changes":[5.7677405E2,1.514212E2,1.5339557E2,1.1360426E2,1.6857178E1,1.0582275E1,7.745558E0,0E0,0E0,0E0,0E0,0E0,0E0,0E0,0E0],"parents":[2147483647,0,0,1,1,2,2,3,3,4,4,5,5,6,6],"right_children":[2,4,6,8,10,12,14,-1,-1,-1,-1,-1,-1,-1,-1],"split_conditions":[1.8181819E-1,7.0630777E-1,5.014377E-1,3.5301733E-1,5.555556E-1,1.088389E-1,7.2462016E-1,4.2925335E-2,-1.2343721E-2,-3.3803288E-2,-1.8488582E-2,1.35535225E-2,5.8699667E-2,4.6601247E-2,-3.3409595E-2],"split_indices":[1,7,6,13,3,8,11,0,0,0,0,0,0,0,0],"split_type":[0,0,0,0,0,0,0,0,0,0,0,0,0,0,0],"sum_hessian":[1.7495884E3,1.2714316E3,4.7815683E2,3.987275E2,8.727041E2,4.2062787E2,5.7528934E1,1.4570338E2,2.5302412E2,6.1218774E2,2.6051636E2,1.4123971E1,4.065039E2,2.3456326E0,5.5183304E1],"tree_param":{"num_deleted":"0","num_feature":"19","num_nodes":"15","size_leaf_vector":"1"}},{"base_weights":[1.7807403E-4,-6.3547546E-1,4.7750103E-1,-6.639949E-1,-2.1256933E-1,-4.147752E-1,6.620644E-1,-3.3399567E-2,3.888438E-2,4.336466E-2,-3.4581356E-2,-3.329292E-2,-5.280841E-3,3.9438594E-2,-1.726889E-2],"categories":[],"categories_nodes":[],"categories_segments":[],"categories_sizes":[],"default_left":[0,0,0,0,0,0,0,0,0,0,0,0,0,0,0],"id":10,"left_children":[1,3,5,7,9,11,13,-1,-1,-1,-1,-1,-1,-1,-1],"loss_changes":[5.318211E2,8.925476E0,1.6513335E2,4.5742493E0,2.5928806E1,1.3296049E1,1.062074E2,0E0,0E0,0E0,0E0,0E0,0E0,0E0,0E0],"parents":[2147483647,0,0,1,1,2,2,3,3,4,4,5,5,6,6],"right_children":[2,4,6,8,10,12,14,-1,-1,-1,-1,-1,-1,-1,-1],"split_conditions":[2.7995293E-3,8.947763E-1,1.1405377E-1,9.0709156E-1,2.8226203E-1,6.383548E-4,1.8181819E-1,-3.3399567E-2,3.888438E-2,4.336466E-2,-3.4581356E-2,-3.329292E-2,-5.280841E-3,3.9438594E-2,-1.726889E-2],"split_indices":[9,16,13,0,1,2,1,0,0,0,0,0,0,0,0],"split_type":[0,0,0,0,0,0,0,0,0,0,0,0,0,0,0],"sum_hessian":[1.7508016E3,7.5072534E2,1.00007623E3,7.027631E2,4.7962215E1,1.7119283E2,8.288834E2,7.013556E2,1.4075317E0,1.4489796E1,3.347242E1,9.383274E1,7.736009E1,7.364732E2,9.241024E1],"tree_param":{"num_deleted":"0","num_feature":"19","num_nodes":"15","size_leaf_vector":"1"}},{"base_weights":[-2.1303666E-4,-3.2917398E-1,1.0409434E0,-5.1787925E-1,6.454208E-1,1.2097979E0,-2.0620528E-1,1.0404107E-2,-3.0489892E-2,5.6179415E-2,1.8885056E-4,-1.7530958E-3,6.1425347E-2,3.1596597E-2,-3.227872E-2],"categories":[],"categories_nodes":[],"categories_segments":[],"categories_sizes":[],"default_left":[0,0,0,0,0,0,0,0,0,0,0,0,0,0,0],"id":11,"left_children":[1,3,5,7,9,11,13,-1,-1,-1,-1,-1,-1,-1,-1],"loss_changes":[5.996552E2,2.4501932E2,8.877292E1,7.454257E1,6.6348755E1,8.669373E0,1.9182121E1,0E0,0E0,0E0,0E0,0E0,0E0,0E0,0E0],"parents":[2147483647,0,0,1,1,2,2,3,3,4,4,5,5,6,6],"right_children":[2,4,6,8,10,12,14,-1,-1,-1,-1,-1,-1,-1,-1],"split_conditions":[5.81027E-3,9.7029656E-1,3.478261E-1,2.3913044E-1,2.1650879E-1,5.5555556E-2,2.9814392E-1,1.0404107E-2,-3.0489892E-2,5.6179415E-2,1.8885056E-4,-1.7530958E-3,6.1425347E-2,3.1596597E-2,-3.227872E-2],"split_indices":[6,9,16,16,10,7,3,0,0,0,0,0,0,0,0],"split_type":[0,0,0,0,0,0,0,0,0,0,0,0,0,0,0],"sum_hessian":[1.7488185E3,1.3294523E3,4.1936624E2,1.1141871E3,2.1526517E2,3.6938437E2,4.9981888E1,1.25077415E2,9.891097E2,1.22915E2,9.235017E1,5.4563355E0,3.6392804E2,1.7039394E1,3.2942493E1],"tree_param":{"num_deleted":"0","num_feature":"19","num_nodes":"15","size_leaf_vector":"1"}},{"base_weights":[9.143268E-5,-3.4290746E-1,8.900987E-1,1.7702132E-1,-5.645612E-1,1.0848658E0,-5.7712996E-1,4.3150097E-2,-1.2172919E-2,-3.2862365E-2,-1.7507043E-2,5.584841E-2,1.6665412E-2,4.5055266E-2,-3.286716E-2],"categories":[],"categories_nodes":[],"categories_segments":[],"categories_sizes":[],"default_left":[0,0,0,0,0,0,0,0,0,0,0,0,0,0,0],"id":12,"left_children":[1,3,5,7,9,11,13,-1,-1,-1,-1,-1,-1,-1,-1],"loss_changes":[5.3186926E2,1.4503247E2,1.3912921E2,1.08852196E2,1.729776E1,9.959198E0,7.40448E0,0E0,0E0,0E0,0E0,0E0,0E0,0E0,0E0],"parents":[2147483647,0,0,1,1,2,2,3,3,4,4,5,5,6,6],"right_children":[2,4,6,8,10,12,14,-1,-1,-1,-1,-1,-1,-1,-1],"split_conditions":[1.8181819E-1,6.8844676E-1,5.014377E-1,3.6841926E-1,5.555556E-1,9.6768844E-1,7.2462016E-1,4.3150097E-2,-1.2172919E-2,-3.2862365E-2,-1.7507043E-2,5.584841E-2,1.6665412E-2,4.5055266E-2,-3.286716E-2],"split_indices":[1,7,6,13,3,0,11,0,0,0,0,0,0,0,0],"split_type":[0,0,0,0,0,0,0,0,0,0,0,0,0,0,0],"sum_hessian":[1.7402827E3,1.2566128E3,4.836699E2,3.756528E2,8.8096E2,4.272193E2,5.6450577E1,1.4235654E2,2.3329628E2,6.136405E2,2.6731952E2,4.0925214E2,1.7967163E1,2.3787694E0,5.4071808E1],"tree_param":{"num_deleted":"0","num_feature":"19","num_nodes":"15","size_leaf_vector":"1"}},{"base_weights":[1.4390862E-4,-6.2369096E-1,4.55486E-1,-6.5227246E-1,-2.0377022E-1,-5.306225E-1,6.1038625E-1,-3.2814194E-2,3.754139E-2,4.1690893E-2,-3.3995863E-2,-2.9801244E-2,3.6195595E-2,-2.0808458E-2,3.6485296E-2],"categories":[],"categories_nodes":[],"categories_segments":[],"categories_sizes":[],"default_left":[0,0,0,0,0,0,0,0,0,0,0,0,0,0,0],"id":13,"left_children":[1,3,5,7,9,11,13,-1,-1,-1,-1,-1,-1,-1,-1],"loss_changes":[4.9555533E2,8.701569E0,1.5436565E2,4.369171E0,2.4460253E1,1.1708492E1,1.07116486E2,0E0,0E0,0E0,0E0,0E0,0E0,0E0,0E0],"parents":[2147483647,0,0,1,1,2,2,3,3,4,4,5,5,6,6],"right_children":[2,4,6,8,10,12,14,-1,-1,-1,-1,-1,-1,-1,-1],"split_conditions":[2.7995293E-3,8.947763E-1,2.1650879E-1,9.0709156E-1,2.8226203E-1,4.2105263E-1,4.108158E-1,-3.2814194E-2,3.754139E-2,4.1690893E-2,-3.3995863E-2,-2.9801244E-2,3.6195595E-2,-2.0808458E-2,3.6485296E-2],"split_indices":[9,16,10,0,1,17,7,0,0,0,0,0,0,0,0],"split_type":[0,0,0,0,0,0,0,0,0,0,0,0,0,0,0],"sum_hessian":[1.742555E3,7.3508826E2,1.0074668E3,6.877255E2,4.73627E1,1.3644168E2,8.710251E2,6.862957E2,1.4298258E0,1.4661706E1,3.2700993E1,1.3017993E2,6.2617383E0,9.0440544E1,7.805846E2],"tree_param":{"num_deleted":"0","num_feature":"19","num_nodes":"15","size_leaf_vector":"1"}},{"base_weights":[-2.356433E-4,-3.2087132E-1,9.890349E-1,-5.0736916E-1,6.2112784E-1,1.1471926E0,-2.032412E-1,-2.9815322E-2,1.1235404E-2,5.361107E-2,3.094681E-4,-1.9275509E-3,5.8238108E-2,3.0211762E-2,-3.1887315E-2],"categories":[],"categories_nodes":[],"categories_segments":[],"categories_sizes":[],"default_left":[0,0,0,0,0,0,0,0,0,0,0,0,0,0,0],"id":14,"left_children":[1,3,5,7,9,11,13,-1,-1,-1,-1,-1,-1,-1,-1],"loss_changes":[5.523565E2,2.313575E2,8.061008E1,7.164551E1,6.040719E1,7.888153E0,1.8198227E1,0E0,0E0,0E0,0E0,0E0,0E0,0E0,0E0],"parents":[2147483647,0,0,1,1,2,2,3,3,4,4,5,5,6,6],"right_children":[2,4,6,8,10,12,14,-1,-1,-1,-1,-1,-1,-1,-1],"split_conditions":[5.81027E-3,9.7029656E-1,3.478261E-1,9.677073E-1,2.1650879E-1,5.5555556E-2,2.9814392E-1,-2.9815322E-2,1.1235404E-2,5.361107E-2,3.094681E-4,-1.9275509E-3,5.8238108E-2,3.0211762E-2,-3.1887315E-2],"split_indices":[6,9,16,7,10,7,3,0,0,0,0,0,0,0,0],"split_type":[0,0,0,0,0,0,0,0,0,0,0,0,0,0,0],"sum_hessian":[1.7393757E3,1.3141257E3,4.252499E2,1.0973357E3,2.167901E2,3.7547964E2,4.9770264E1,9.786309E2,1.1870472E2,1.2462599E2,9.2164116E1,5.464949E0,3.7001468E2,1.727538E1,3.2494884E1],"tree_param":{"num_deleted":"0","num_feature":"19","num_nodes":"15","size_leaf_vector":"1"}},{"base_weights":[1.1840453E-4,5.843567E-1,-4.8954454E-1,7.466191E-1,-6.077177E-1,-5.3402746E-1,1.0650312E0,4.9835462E-2,8.277678E-3,3.581098E-2,-3.2790676E-2,-2.9741064E-2,-8.993931E-3,1.7420633E-2,5.4536175E-2],"categories":[],"categories_nodes":[],"categories_segments":[],"categories_sizes":[],"default_left":[0,0,0,0,0,0,0,0,0,0,0,0,0,0,0],"id":15,"left_children":[1,3,5,7,9,11,13,-1,-1,-1,-1,-1,-1,-1,-1],"loss_changes":[4.951533E2,1.5310712E2,6.568404E1,1.0084491E2,6.525566E0,1.9616608E1,1.0840225E-1,0E0,0E0,0E0,0E0,0E0,0E0,0E0,0E0],"parents":[2147483647,0,0,1,1,2,2,3,3,4,4,5,5,6,6],"right_children":[2,4,6,8,10,12,14,-1,-1,-1,-1,-1,-1,-1,-1],"split_conditions":[7.0630777E-1,5.014377E-1,4.5454547E-1,8.059638E-1,4.6052632E-1,7.777778E-1,5.9037036E-3,4.9835462E-2,8.277678E-3,3.581098E-2,-3.2790676E-2,-2.9741064E-2,-8.993931E-3,1.7420633E-2,5.4536175E-2],"split_indices":[7,6,1,16,17,3,10,0,0,0,0,0,0,0,0],"split_type":[0,0,0,0,0,0,0,0,0,0,0,0,0,0,0],"sum_hessian":[1.7288219E3,7.881966E2,9.406253E2,6.940921E2,9.410451E1,9.1509705E2,2.5528252E1,4.8474356E2,2.0934854E2,2.8118193E0,9.129269E1,7.804449E2,1.3465218E2,1.3875355E0,2.4140717E1],"tree_param":{"num_deleted":"0","num_feature":"19","num_nodes":"15","size_leaf_vector":"1"}},{"base_weights":[2.5459004E-4,-6.1308366E-1,4.3634865E-1,-6.4169157E-1,-1.9670816E-1,-4.0565524E-1,6.049606E-1,-3.3687916E-2,-2.1570174E-2,4.0074777E-2,-3.348367E-2,-3.258192E-2,-5.516968E-3,3.5894614E-2,-1.6434425E-2],"categories":[],"categories_nodes":[],"categories_segments":[],"categories_sizes":[],"default_left":[0,0,0,0,0,0,0,0,0,0,0,0,0,0,0],"id":16,"left_children":[1,3,5,7,9,11,13,-1,-1,-1,-1,-1,-1,-1,-1],"loss_changes":[4.639682E2,8.4600525E0,1.4417691E2,4.2546387E0,2.3096386E1,1.225864E1,8.933786E1,0E0,0E0,0E0,0E0,0E0,0E0,0E0,0E0],"parents":[2147483647,0,0,1,1,2,2,3,3,4,4,5,5,6,6],"right_children":[2,4,6,8,10,12,14,-1,-1,-1,-1,-1,-1,-1,-1],"split_conditions":[2.7995293E-3,8.947763E-1,1.1405377E-1,5.766887E-1,2.8226203E-1,6.383548E-4,1.8181819E-1,-3.3687916E-2,-2.1570174E-2,4.0074777E-2,-3.348367E-2,-3.258192E-2,-5.516968E-3,3.5894614E-2,-1.6434425E-2],"split_indices":[9,16,13,2,1,2,1,0,0,0,0,0,0,0,0],"split_type":[0,0,0,0,0,0,0,0,0,0,0,0,0,0,0],"sum_hessian":[1.7326345E3,7.1983167E2,1.0128028E3,6.730475E2,4.6784153E1,1.6874228E2,8.4406055E2,5.820819E2,9.096558E1,1.4817297E1,3.1966856E1,9.1402245E1,7.734004E1,7.531881E2,9.087245E1],"tree_param":{"num_deleted":"0","num_feature":"19","num_nodes":"15","size_leaf_vector":"1"}},{"base_weights":[-3.7377357E-4,8.6445427E-1,-3.4418023E-1,-3.9007032E-1,9.907679E-1,-5.3598404E-1,6.310061E-1,-3.4304768E-2,2.7651979E-2,1.7629713E-2,5.5001218E-2,-3.1252097E-2,6.640947E-3,5.1090103E-2,6.3292355E-5],"categories":[],"categories_nodes":[],"categories_segments":[],"categories_sizes":[],"default_left":[0,0,0,0,0,0,0,0,0,0,0,0,0,0,0],"id":17,"left_children":[1,3,5,7,9,11,13,-1,-1,-1,-1,-1,-1,-1,-1],"loss_changes":[5.143327E2,7.836032E1,2.3185347E2,1.3146357E1,3.0802155E1,6.172165E1,5.017698E1,0E0,0E0,0E0,0E0,0E0,0E0,0E0,0E0],"parents":[2147483647,0,0,1,1,2,2,3,3,4,4,5,5,6,6],"right_children":[2,4,6,8,10,12,14,-1,-1,-1,-1,-1,-1,-1,-1],"split_conditions":[2.3913044E-1,1.330643E-1,1E0,1E0,3.885508E-1,9.6428686E-1,2.1650879E-1,-3.4304768E-2,2.7651979E-2,1.7629713E-2,5.5001218E-2,-3.1252097E-2,6.640947E-3,5.1090103E-2,6.3292355E-5],"split_indices":[16,7,9,6,8,7,10,0,0,0,0,0,0,0,0],"split_type":[0,0,0,0,0,0,0,0,0,0,0,0,0,0,0],"sum_hessian":[1.7278171E3,4.9106165E2,1.2367555E3,4.4729385E1,4.4633228E2,1.0338616E3,2.0289392E2,3.4251106E1,1.0478281E1,6.586102E1,3.8047125E2,9.12428E2,1.2143358E2,1.2481518E2,7.807874E1],"tree_param":{"num_deleted":"0","num_feature":"19","num_nodes":"15","size_leaf_vector":"1"}},{"base_weights":[7.964055E-5,-3.2774112E-1,8.2153624E-1,1.6096355E-1,-5.437658E-1,9.9491656E-1,-5.5780673E-1,3.9408598E-2,-1.1755354E-2,-3.190633E-2,-1.642372E-2,3.2343376E-2,5.2919354E-2,4.3173473E-2,-3.194518E-2],"categories":[],"categories_nodes":[],"categories_segments":[],"categories_sizes":[],"default_left":[0,0,0,0,0,0,0,0,0,0,0,0,0,0,0],"id":18,"left_children":[1,3,5,7,9,11,13,-1,-1,-1,-1,-1,-1,-1,-1],"loss_changes":[4.6272974E2,1.2975047E2,1.1777179E2,9.390282E1,1.7097534E1,8.9418335E0,6.933735E0,0E0,0E0,0E0,0E0,0E0,0E0,0E0,0E0],"parents":[2147483647,0,0,1,1,2,2,3,3,4,4,5,5,6,6],"right_children":[2,4,6,8,10,12,14,-1,-1,-1,-1,-1,-1,-1,-1],"split_conditions":[1.8181819E-1,6.8844676E-1,5.014377E-1,3.6841926E-1,5.555556E-1,2.7272728E-1,7.2462016E-1,3.9408598E-2,-1.1755354E-2,-3.190633E-2,-1.642372E-2,3.2343376E-2,5.2919354E-2,4.3173473E-2,-3.194518E-2],"split_indices":[1,7,6,13,3,1,11,0,0,0,0,0,0,0,0],"split_type":[0,0,0,0,0,0,0,0,0,0,0,0,0,0,0],"sum_hessian":[1.7163291E3,1.2271917E3,4.8913745E2,3.762561E2,8.5093555E2,4.3476694E2,5.4370537E1,1.452506E2,2.3100551E2,5.9026306E2,2.606725E2,6.8782104E1,3.6598483E2,2.4141178E0,5.195642E1],"tree_param":{"num_deleted":"0","num_feature":"19","num_nodes":"15","size_leaf_vector":"1"}},{"base_weights":[4.2817075E-4,-6.0314035E-1,4.1901603E-1,-6.31559E-1,-1.9618174E-1,-5.4245836E-1,5.5621713E-1,-3.1784486E-2,3.71596E-2,3.8545713E-2,-3.3212047E-2,-3.388727E-2,5.52482E-3,-2.2746136E-2,3.2918926E-2],"categories":[],"categories_nodes":[],"categories_segments":[],"categories_sizes":[],"default_left":[0,0,0,0,0,0,0,0,0,0,0,0,0,0,0],"id":19,"left_children":[1,3,5,7,9,11,13,-1,-1,-1,-1,-1,-1,-1,-1],"loss_changes":[4.3539282E2,8.038025E0,1.3453876E2,4.215912E0,2.2020615E1,1.1345081E1,9.2341125E1,0E0,0E0,0E0,0E0,0E0,0E0,0E0,0E0],"parents":[2147483647,0,0,1,1,2,2,3,3,4,4,5,5,6,6],"right_children":[2,4,6,8,10,12,14,-1,-1,-1,-1,-1,-1,-1,-1],"split_conditions":[2.7995293E-3,8.947763E-1,2.1258003E-1,9.0709156E-1,2.8226203E-1,1.3284719E-1,4.0443543E-1,-3.1784486E-2,3.71596E-2,3.8545713E-2,-3.3212047E-2,-3.388727E-2,5.52482E-3,-2.2746136E-2,3.2918926E-2],"split_indices":[9,16,10,0,1,14,7,0,0,0,0,0,0,0,0],"split_type":[0,0,0,0,0,0,0,0,0,0,0,0,0,0,0],"sum_hessian":[1.7213282E3,7.0472833E2,1.0165999E3,6.582122E2,4.6516087E1,1.2658275E2,8.9001715E2,6.567764E2,1.435813E0,1.4959654E1,3.1556433E1,1.0482572E2,2.1757025E1,8.135503E1,8.086621E2],"tree_param":{"num_deleted":"0","num_feature":"19","num_nodes":"15","size_leaf_vector":"1"}},{"base_weights":[-5.097377E-4,-3.063844E-1,9.061403E-1,-4.8829362E-1,5.765195E-1,1.0463803E0,-1.8956998E-1,-2.8879985E-2,1.0981103E-2,4.8853043E-2,7.658309E-4,-2.7864021E-3,5.3128224E-2,2.961163E-2,-3.1184403E-2],"categories":[],"categories_nodes":[],"categories_segments":[],"categories_sizes":[],"default_left":[0,0,0,0,0,0,0,0,0,0,0,0,0,0,0],"id":20,"left_children":[1,3,5,7,9,11,13,-1,-1,-1,-1,-1,-1,-1,-1],"loss_changes":[4.7587924E2,2.0635884E2,6.671561E1,6.742239E1,4.9361298E1,6.9069824E0,1.7326973E1,0E0,0E0,0E0,0E0,0E0,0E0,0E0,0E0],"parents":[2147483647,0,0,1,1,2,2,3,3,4,4,5,5,6,6],"right_children":[2,4,6,8,10,12,14,-1,-1,-1,-1,-1,-1,-1,-1],"split_conditions":[5.81027E-3,9.7029656E-1,3.478261E-1,9.677073E-1,2.1650879E-1,5.5555556E-2,2.9814392E-1,-2.8879985E-2,1.0981103E-2,4.8853043E-2,7.658309E-4,-2.7864021E-3,5.3128224E-2,2.961163E-2,-3.1184403E-2],"split_indices":[6,9,16,7,10,7,3,0,0,0,0,0,0,0,0],"split_type":[0,0,0,0,0,0,0,0,0,0,0,0,0,0,0],"sum_hessian":[1.7139841E3,1.2821051E3,4.3187912E2,1.0634451E3,2.1866005E2,3.8291486E2,4.8964275E1,9.444796E2,1.1896538E2,1.27161446E2,9.14986E1,5.506248E0,3.774086E2,1.7351595E1,3.1612682E1],"tree_param":{"num_deleted":"0","num_feature":"19","num_nodes":"15","size_leaf_vector":"1"}},{"base_weights":[1.2767494E-4,5.3919196E-1,-4.7013822E-1,6.87997E-1,-5.9288675E-1,-5.135879E-1,9.789872E-1,4.584756E-2,7.433335E-3,3.4181263E-2,-3.2048304E-2,-2.8753916E-2,-8.095406E-3,5.010829E-2,1.6092218E-2],"categories":[],"categories_nodes":[],"categories_segments":[],"categories_sizes":[],"default_left":[0,0,0,0,0,0,0,0,0,0,0,0,0,0,0],"id":21,"left_children":[1,3,5,7,9,11,13,-1,-1,-1,-1,-1,-1,-1,-1],"loss_changes":[4.3177554E2,1.3409157E2,5.777896E1,8.652814E1,6.129303E0,1.9019867E1,8.604622E-2,0E0,0E0,0E0,0E0,0E0,0E0,0E0,0E0],"parents":[2147483647,0,0,1,1,2,2,3,3,4,4,5,5,6,6],"right_children":[2,4,6,8,10,12,14,-1,-1,-1,-1,-1,-1,-1,-1],"split_conditions":[7.0630777E-1,5.014377E-1,4.5454547E-1,8.059638E-1,4.6052632E-1,7.777778E-1,9.122203E-1,4.584756E-2,7.433335E-3,3.4181263E-2,-3.2048304E-2,-2.8753916E-2,-8.095406E-3,5.010829E-2,1.6092218E-2],"split_indices":[7,6,1,16,17,3,17,0,0,0,0,0,0,0,0],"split_type":[0,0,0,0,0,0,0,0,0,0,0,0,0,0,0],"sum_hessian":[1.7012328E3,7.92568E2,9.0866473E2,7.008391E2,9.1728874E1,8.828398E2,2.5824932E1,4.914926E2,2.0934651E2,2.8497198E0,8.887916E1,7.509097E2,1.3193008E2,2.443793E1,1.387003E0],"tree_param":{"num_deleted":"0","num_feature":"19","num_nodes":"15","size_leaf_vector":"1"}},{"base_weights":[5.442011E-4,-5.9346306E-1,4.022366E-1,-6.220132E-1,-1.8777022E-1,-2.531926E-1,5.9192705E-1,-3.2746475E-2,-2.0447096E-2,3.7252724E-2,-3.269599E-2,-3.0098433E-2,5.80227E-3,-2.436435E-2,3.384659E-2],"categories":[],"categories_nodes":[],"categories_segments":[],"categories_sizes":[],"default_left":[0,0,0,0,0,0,0,0,0,0,0,0,0,0,0],"id":22,"left_children":[1,3,5,7,9,11,13,-1,-1,-1,-1,-1,-1,-1,-1],"loss_changes":[4.080807E2,7.874771E0,1.27001175E2,4.250046E0,2.0835522E1,2.965204E1,7.294821E1,0E0,0E0,0E0,0E0,0E0,0E0,0E0,0E0],"parents":[2147483647,0,0,1,1,2,2,3,3,4,4,5,5,6,6],"right_children":[2,4,6,8,10,12,14,-1,-1,-1,-1,-1,-1,-1,-1],"split_conditions":[2.7995293E-3,8.947763E-1,5.225916E-1,5.766887E-1,2.8226203E-1,6.383548E-4,2.1258003E-1,-3.2746475E-2,-2.0447096E-2,3.7252724E-2,-3.269599E-2,-3.0098433E-2,5.80227E-3,-2.436435E-2,3.384659E-2],"split_indices":[9,16,16,2,1,2,10,0,0,0,0,0,0,0,0],"split_type":[0,0,0,0,0,0,0,0,0,0,0,0,0,0,0],"sum_hessian":[1.7082538E3,6.8896356E2,1.0192902E3,6.4316815E2,4.57954E1,2.287086E2,7.905816E2,5.5530786E2,8.786028E1,1.5060034E1,3.0735367E1,1.1728904E2,1.1141956E2,5.7378304E1,7.332033E2],"tree_param":{"num_deleted":"0","num_feature":"19","num_nodes":"15","size_leaf_vector":"1"}},{"base_weights":[-6.7515916E-4,7.9934734E-1,-3.2991788E-1,-3.7757602E-1,9.134875E-1,-5.1724905E-1,5.8561563E-1,-3.3400796E-2,2.49505E-2,4.9474616E-2,6.740556E-3,-3.067161E-2,4.4716224E-3,4.6827145E-2,4.499978E-4],"categories":[],"categories_nodes":[],"categories_segments":[],"categories_sizes":[],"default_left":[0,0,0,0,0,0,0,0,0,0,0,0,0,0,0],"id":23,"left_children":[1,3,5,7,9,11,13,-1,-1,-1,-1,-1,-1,-1,-1],"loss_changes":[4.479393E2,6.695001E1,2.0693169E2,1.1673445E1,2.6633698E1,5.8446228E1,4.149578E1,0E0,0E0,0E0,0E0,0E0,0E0,0E0,0E0],"parents":[2147483647,0,0,1,1,2,2,3,3,4,4,5,5,6,6],"right_children":[2,4,6,8,10,12,14,-1,-1,-1,-1,-1,-1,-1,-1],"split_conditions":[2.3913044E-1,1.330643E-1,1E0,1E0,2.840909E-1,9.4874007E-1,2.1650879E-1,-3.3400796E-2,2.49505E-2,4.9474616E-2,6.740556E-3,-3.067161E-2,4.4716224E-3,4.6827145E-2,4.499978E-4],"split_indices":[16,7,9,6,12,7,10,0,0,0,0,0,0,0,0],"split_type":[0,0,0,0,0,0,0,0,0,0,0,0,0,0,0],"sum_hessian":[1.6985934E3,4.9481677E2,1.2037766E3,4.3541626E1,4.5127515E2,9.996658E2,2.0411081E2,3.288406E1,1.0657565E1,4.108976E2,4.0377514E1,8.628574E2,1.3680832E2,1.2649933E2,7.761148E1],"tree_param":{"num_deleted":"0","num_feature":"19","num_nodes":"15","size_leaf_vector":"1"}},{"base_weights":[2.5145197E-4,-3.1402135E-1,7.6721656E-1,1.4629589E-1,-5.245116E-1,9.241685E-1,-5.400066E-1,3.6213383E-2,-1.1355761E-2,-3.1048317E-2,-1.5378244E-2,3.0001342E-2,4.916316E-2,4.1500047E-2,-3.1108363E-2],"categories":[],"categories_nodes":[],"categories_segments":[],"categories_sizes":[],"default_left":[0,0,0,0,0,0,0,0,0,0,0,0,0,0,0],"id":24,"left_children":[1,3,5,7,9,11,13,-1,-1,-1,-1,-1,-1,-1,-1],"loss_changes":[4.0678528E2,1.1606834E2,1.01142365E2,8.1404205E1,1.7003464E1,7.8059998E0,6.506179E0,0E0,0E0,0E0,0E0,0E0,0E0,0E0,0E0],"parents":[2147483647,0,0,1,1,2,2,3,3,4,4,5,5,6,6],"right_children":[2,4,6,8,10,12,14,-1,-1,-1,-1,-1,-1,-1,-1],"split_conditions":[1.8181819E-1,6.8844676E-1,5.014377E-1,3.6841926E-1,5.555556E-1,2.7272728E-1,7.2462016E-1,3.6213383E-2,-1.1355761E-2,-3.1048317E-2,-1.5378244E-2,3.0001342E-2,4.916316E-2,4.1500047E-2,-3.1108363E-2],"split_indices":[1,7,6,13,3,1,11,0,0,0,0,0,0,0,0],"split_type":[0,0,0,0,0,0,0,0,0,0,0,0,0,0,0],"sum_hessian":[1.6856523E3,1.1961193E3,4.8953308E2,3.7542157E2,8.2069763E2,4.3731927E2,5.2213783E1,1.4698155E2,2.2844002E2,5.6682446E2,2.538732E2,6.9154015E1,3.6816528E2,2.4391642E0,4.977462E1],"tree_param":{"num_deleted":"0","num_feature":"19","num_nodes":"15","size_leaf_vector":"1"}},{"base_weights":[7.69352E-4,-5.844415E-1,3.8725746E-1,-6.128477E-1,-1.8730366E-1,-3.8954312E-1,5.360901E-1,-3.2293163E-2,-2.009481E-2,3.5919677E-2,-3.2443333E-2,-3.1411674E-2,-5.7818685E-3,3.0657142E-2,-3.016997E-2],"categories":[],"categories_nodes":[],"categories_segments":[],"categories_sizes":[],"default_left":[0,0,0,0,0,0,0,0,0,0,0,0,0,0,0],"id":25,"left_children":[1,3,5,7,9,11,13,-1,-1,-1,-1,-1,-1,-1,-1],"loss_changes":[3.8360214E2,7.4953613E0,1.1830078E2,4.1220245E0,1.9892546E1,1.0702839E1,7.566998E1,0E0,0E0,0E0,0E0,0E0,0E0,0E0,0E0],"parents":[2147483647,0,0,1,1,2,2,3,3,4,4,5,5,6,6],"right_children":[2,4,6,8,10,12,14,-1,-1,-1,-1,-1,-1,-1,-1],"split_conditions":[2.7995293E-3,8.947763E-1,1.1405377E-1,5.766887E-1,2.8226203E-1,6.383548E-4,2.7272728E-1,-3.2293163E-2,-2.009481E-2,3.5919677E-2,-3.2443333E-2,-3.1411674E-2,-5.7818685E-3,3.0657142E-2,-3.016997E-2],"split_indices":[9,16,13,2,1,2,1,0,0,0,0,0,0,0,0],"split_type":[0,0,0,0,0,0,0,0,0,0,0,0,0,0,0],"sum_hessian":[1.6940254E3,6.7358594E2,1.02043945E3,6.281153E2,4.5470608E1,1.638165E2,8.56623E2,5.413312E2,8.67841E1,1.5162233E1,3.0308374E1,8.68441E1,7.69724E1,8.0279926E2,5.382371E1],"tree_param":{"num_deleted":"0","num_feature":"19","num_nodes":"15","size_leaf_vector":"1"}},{"base_weights":[-1.0274184E-3,7.677185E-1,-3.2260042E-1,-3.7085098E-1,8.760797E-1,-5.0761E-1,5.647418E-1,-3.2923106E-2,2.3597483E-2,1.5218789E-2,4.8678156E-2,-3.0456075E-2,3.092226E-3,4.4926777E-2,6.461413E-4],"categories":[],"categories_nodes":[],"categories_segments":[],"categories_sizes":[],"default_left":[0,0,0,0,0,0,0,0,0,0,0,0,0,0,0],"id":26,"left_children":[1,3,5,7,9,11,13,-1,-1,-1,-1,-1,-1,-1,-1],"loss_changes":[4.1606497E2,6.1568115E1,1.9509723E2,1.093758E1,2.4980896E1,5.6829773E1,3.778579E1,0E0,0E0,0E0,0E0,0E0,0E0,0E0,0E0],"parents":[2147483647,0,0,1,1,2,2,3,3,4,4,5,5,6,6],"right_children":[2,4,6,8,10,12,14,-1,-1,-1,-1,-1,-1,-1,-1],"split_conditions":[2.3913044E-1,1.330643E-1,1E0,1E0,3.885508E-1,9.3036133E-1,2.1650879E-1,-3.2923106E-2,2.3597483E-2,1.5218789E-2,4.8678156E-2,-3.0456075E-2,3.092226E-3,4.4926777E-2,6.461413E-4],"split_indices":[16,7,9,6,8,7,10,0,0,0,0,0,0,0,0],"split_type":[0,0,0,0,0,0,0,0,0,0,0,0,0,0,0],"sum_hessian":[1.6810547E3,4.9539233E2,1.1856622E3,4.2840225E1,4.5255212E2,9.814577E2,2.042046E2,3.2103443E1,1.0736784E1,6.6525795E1,3.8602634E2,8.329123E2,1.4854538E2,1.2684693E2,7.735767E1],"tree_param":{"num_deleted":"0","num_feature":"19","num_nodes":"15","size_leaf_vector":"1"}},{"base_weights":[2.2183327E-4,-3.063206E-1,7.393713E-1,1.4243203E-1,-5.1481694E-1,8.884005E-1,-5.30839E-1,3.4885522E-2,-1.10122645E-2,-3.0621944E-2,-1.4858009E-2,4.5801602E-2,1.2234022E-2,4.039739E-2,-3.0670678E-2],"categories":[],"categories_nodes":[],"categories_segments":[],"categories_sizes":[],"default_left":[0,0,0,0,0,0,0,0,0,0,0,0,0,0,0],"id":27,"left_children":[1,3,5,7,9,11,13,-1,-1,-1,-1,-1,-1,-1,-1],"loss_changes":[3.782267E2,1.104719E2,9.3104034E1,7.569168E1,1.6940674E1,7.57251E0,6.2453423E0,0E0,0E0,0E0,0E0,0E0,0E0,0E0,0E0],"parents":[2147483647,0,0,1,1,2,2,3,3,4,4,5,5,6,6],"right_children":[2,4,6,8,10,12,14,-1,-1,-1,-1,-1,-1,-1,-1],"split_conditions":[1.8181819E-1,6.8844676E-1,5.014377E-1,3.6841926E-1,5.555556E-1,9.6768844E-1,7.2462016E-1,3.4885522E-2,-1.10122645E-2,-3.0621944E-2,-1.4858009E-2,4.5801602E-2,1.2234022E-2,4.039739E-2,-3.0670678E-2],"split_indices":[1,7,6,13,3,0,11,0,0,0,0,0,0,0,0],"split_type":[0,0,0,0,0,0,0,0,0,0,0,0,0,0,0],"sum_hessian":[1.6672809E3,1.1789348E3,4.8834607E2,3.7408905E2,8.0484576E2,4.3733566E2,5.1010418E1,1.4743477E2,2.2665428E2,5.5438367E2,2.5046213E2,4.1893015E2,1.8405518E1,2.4531322E0,4.8557285E1],"tree_param":{"num_deleted":"0","num_feature":"19","num_nodes":"15","size_leaf_vector":"1"}},{"base_weights":[8.317754E-4,-5.754895E-1,3.7206692E-1,-6.040408E-1,-1.7964713E-1,-2.4567506E-1,5.467868E-1,-3.0420689E-2,3.7139244E-2,3.476926E-2,-3.1976085E-2,-2.924927E-2,5.008362E-3,-2.3720903E-2,3.1240968E-2],"categories":[],"categories_nodes":[],"categories_segments":[],"categories_sizes":[],"default_left":[0,0,0,0,0,0,0,0,0,0,0,0,0,0,0],"id":28,"left_children":[1,3,5,7,9,11,13,-1,-1,-1,-1,-1,-1,-1,-1],"loss_changes":[3.5950885E2,7.331772E0,1.10441635E2,4.0658264E0,1.8839628E1,2.6581543E1,6.3806274E1,0E0,0E0,0E0,0E0,0E0,0E0,0E0,0E0],"parents":[2147483647,0,0,1,1,2,2,3,3,4,4,5,5,6,6],"right_children":[2,4,6,8,10,12,14,-1,-1,-1,-1,-1,-1,-1,-1],"split_conditions":[2.7995293E-3,8.947763E-1,5.225916E-1,9.0709156E-1,2.8226203E-1,6.383548E-4,2.1258003E-1,-3.0420689E-2,3.7139244E-2,3.476926E-2,-3.1976085E-2,-2.924927E-2,5.008362E-3,-2.3720903E-2,3.1240968E-2],"split_indices":[9,16,16,0,1,2,10,0,0,0,0,0,0,0,0],"split_type":[0,0,0,0,0,0,0,0,0,0,0,0,0,0,0],"sum_hessian":[1.678334E3,6.5732477E2,1.0210093E3,6.126123E2,4.4712425E1,2.2501988E2,7.959894E2,6.111762E2,1.436128E0,1.5226977E1,2.9485447E1,1.13233536E2,1.11786354E2,5.614501E1,7.3984436E2],"tree_param":{"num_deleted":"0","num_feature":"19","num_nodes":"15","size_leaf_vector":"1"}},{"base_weights":[-1.0623598E-3,-2.879114E-1,8.135033E-1,-5.666655E-1,2.2852597E-1,9.3443817E-1,-1.6540512E-1,-3.1200884E-2,9.882381E-3,3.8175035E-2,-3.6585056E-3,-3.9531356E-3,4.7469568E-2,2.954689E-2,-3.0194988E-2],"categories":[],"categories_nodes":[],"categories_segments":[],"categories_sizes":[],"default_left":[0,0,0,0,0,0,0,0,0,0,0,0,0,0,0],"id":29,"left_children":[1,3,5,7,9,11,13,-1,-1,-1,-1,-1,-1,-1,-1],"loss_changes":[3.8885187E2,1.7731082E2,5.1464447E1,3.517447E1,6.980651E1,5.923584E0,1.644425E1,0E0,0E0,0E0,0E0,0E0,0E0,0E0,0E0],"parents":[2147483647,0,0,1,1,2,2,3,3,4,4,5,5,6,6],"right_children":[2,4,6,8,10,12,14,-1,-1,-1,-1,-1,-1,-1,-1],"split_conditions":[5.81027E-3,8.333333E-1,3.478261E-1,7.414281E-1,2.2733423E-1,5.5555556E-2,2.9814392E-1,-3.1200884E-2,9.882381E-3,3.8175035E-2,-3.6585056E-3,-3.9531356E-3,4.7469568E-2,2.954689E-2,-3.0194988E-2],"split_indices":[6,7,16,17,10,7,3,0,0,0,0,0,0,0,0],"split_type":[0,0,0,0,0,0,0,0,0,0,0,0,0,0,0],"sum_hessian":[1.6621946E3,1.229776E3,4.3241864E2,7.9861523E2,4.311607E2,3.8491187E2,4.750677E1,7.430427E2,5.5572514E1,1.5492078E2,2.7623993E2,5.5340757E0,3.7937778E2,1.7306973E1,3.0199797E1],"tree_param":{"num_deleted":"0","num_feature":"19","num_nodes":"15","size_leaf_vector":"1"}},{"base_weights":[3.4999155E-4,4.8424858E-1,-4.4344592E-1,6.1885554E-1,-5.760021E-1,-4.8542657E-1,8.8527197E-1,4.0632453E-2,4.8654065E-3,3.200475E-2,-3.1198725E-2,-2.7429624E-2,-6.672221E-3,4.526613E-2,1.4773893E-2],"categories":[],"categories_nodes":[],"categories_segments":[],"categories_sizes":[],"default_left":[0,0,0,0,0,0,0,0,0,0,0,0,0,0,0],"id":30,"left_children":[1,3,5,7,9,11,13,-1,-1,-1,-1,-1,-1,-1,-1],"loss_changes":[3.5432852E2,1.1300432E2,4.843628E1,7.075964E1,5.6171074E0,1.8489807E1,4.8397064E-2,0E0,0E0,0E0,0E0,0E0,0E0,0E0,0E0],"parents":[2147483647,0,0,1,1,2,2,3,3,4,4,5,5,6,6],"right_children":[2,4,6,8,10,12,14,-1,-1,-1,-1,-1,-1,-1,-1],"split_conditions":[7.0630777E-1,5.014377E-1,4.5454547E-1,8.297184E-1,4.6052632E-1,7.777778E-1,9.122203E-1,4.0632453E-2,4.8654065E-3,3.200475E-2,-3.1198725E-2,-2.7429624E-2,-6.672221E-3,4.526613E-2,1.4773893E-2],"split_indices":[7,6,1,16,17,3,17,0,0,0,0,0,0,0,0],"split_type":[0,0,0,0,0,0,0,0,0,0,0,0,0,0,0],"sum_hessian":[1.6479415E3,7.883083E2,8.5963324E2,6.998706E2,8.8437645E1,8.339203E2,2.5712938E1,5.0986127E2,1.9000937E2,2.8878474E0,8.55498E1,7.065635E2,1.273568E2,2.4350153E1,1.3627849E0],"tree_param":{"num_deleted":"0","num_feature":"19","num_nodes":"15","size_leaf_vector":"1"}},{"base_weights":[9.300207E-4,-4.7580612E-1,4.2653543E-1,-5.5835074E-1,2.1821606E-1,-4.0128586E-1,5.729332E-1,-2.8692681E-2,-3.2403555E-3,-3.0148769E-2,2.955071E-2,-2.6656106E-2,4.2895086E-2,-2.1214431E-2,3.1839833E-2],"categories":[],"categories_nodes":[],"categories_segments":[],"categories_sizes":[],"default_left":[0,0,0,0,0,0,0,0,0,0,0,0,0,0,0],"id":31,"left_children":[1,3,5,7,9,11,13,-1,-1,-1,-1,-1,-1,-1,-1],"loss_changes":[3.3750583E2,4.5068222E1,1.06735825E2,5.3299103E0,2.6107069E1,2.2478287E1,4.7854736E1,0E0,0E0,0E0,0E0,0E0,0E0,0E0,0E0],"parents":[2147483647,0,0,1,1,2,2,3,3,4,4,5,5,6,6],"right_children":[2,4,6,8,10,12,14,-1,-1,-1,-1,-1,-1,-1,-1],"split_conditions":[1.08144514E-1,8.003907E-1,2.2554657E-1,9.144627E-1,4.0443543E-1,3.8333333E-1,4.0443543E-1,-2.8692681E-2,-3.2403555E-3,-3.0148769E-2,2.955071E-2,-2.6656106E-2,4.2895086E-2,-2.1214431E-2,3.1839833E-2],"split_indices":[9,0,10,16,7,13,7,0,0,0,0,0,0,0,0],"split_type":[0,0,0,0,0,0,0,0,0,0,0,0,0,0,0],"sum_hessian":[1.6613975E3,7.8357196E2,8.778255E2,7.0045746E2,8.311451E1,1.3165091E2,7.4617456E2,6.7896747E2,2.1490013E1,2.5757978E1,5.7356533E1,1.1969547E2,1.1955437E1,4.457026E1,7.016043E2],"tree_param":{"num_deleted":"0","num_feature":"19","num_nodes":"15","size_leaf_vector":"1"}},{"base_weights":[-1.2918853E-3,7.162598E-1,-3.0910826E-1,-3.5951394E-1,8.1579936E-1,-4.9068522E-1,5.349843E-1,-3.2170262E-2,2.1651594E-2,4.4269543E-2,5.296882E-3,-2.9443203E-2,4.6909223E-3,4.2052176E-2,1.2334913E-3],"categories":[],"categories_nodes":[],"categories_segments":[],"categories_sizes":[],"default_left":[0,0,0,0,0,0,0,0,0,0,0,0,0,0,0],"id":32,"left_children":[1,3,5,7,9,11,13,-1,-1,-1,-1,-1,-1,-1,-1],"loss_changes":[3.6322452E2,5.315721E1,1.7664417E2,9.842003E0,2.2243622E1,5.443402E1,3.1873894E1,0E0,0E0,0E0,0E0,0E0,0E0,0E0,0E0],"parents":[2147483647,0,0,1,1,2,2,3,3,4,4,5,5,6,6],"right_children":[2,4,6,8,10,12,14,-1,-1,-1,-1,-1,-1,-1,-1],"split_conditions":[2.3913044E-1,1.330643E-1,1E0,1E0,2.840909E-1,9.4874007E-1,2.1650879E-1,-3.2170262E-2,2.1651594E-2,4.4269543E-2,5.296882E-3,-2.9443203E-2,4.6909223E-3,4.2052176E-2,1.2334913E-3],"split_indices":[16,7,9,6,12,7,10,0,0,0,0,0,0,0,0],"split_type":[0,0,0,0,0,0,0,0,0,0,0,0,0,0,0],"sum_hessian":[1.6424839E3,4.9267673E2,1.1498071E3,4.1504543E1,4.5117218E2,9.465984E2,2.0320882E2,3.0697004E1,1.0807541E1,4.1066522E2,4.0506977E1,8.1045856E2,1.3613982E2,1.26620544E2,7.658828E1],"tree_param":{"num_deleted":"0","num_feature":"19","num_nodes":"15","size_leaf_vector":"1"}},{"base_weights":[3.9851436E-4,-2.9393062E-1,6.978709E-1,1.2894322E-1,-4.9686176E-1,8.350237E-1,-5.1503175E-1,3.2290608E-2,-1.0663972E-2,-2.9857857E-2,-1.3834909E-2,2.6731437E-2,4.4514302E-2,3.9032426E-2,-2.9948482E-2],"categories":[],"categories_nodes":[],"categories_segments":[],"categories_sizes":[],"default_left":[0,0,0,0,0,0,0,0,0,0,0,0,0,0,0],"id":33,"left_children":[1,3,5,7,9,11,13,-1,-1,-1,-1,-1,-1,-1,-1],"loss_changes":[3.3477368E2,9.847723E1,8.093637E1,6.605797E1,1.6950958E1,6.7480164E0,5.8818274E0,0E0,0E0,0E0,0E0,0E0,0E0,0E0,0E0],"parents":[2147483647,0,0,1,1,2,2,3,3,4,4,5,5,6,6],"right_children":[2,4,6,8,10,12,14,-1,-1,-1,-1,-1,-1,-1,-1],"split_conditions":[1.8181819E-1,6.8844676E-1,5.014377E-1,3.6841926E-1,5.555556E-1,2.7272728E-1,7.2462016E-1,3.2290608E-2,-1.0663972E-2,-2.9857857E-2,-1.3834909E-2,2.6731437E-2,4.4514302E-2,3.9032426E-2,-2.9948482E-2],"split_indices":[1,7,6,13,3,1,11,0,0,0,0,0,0,0,0],"split_type":[0,0,0,0,0,0,0,0,0,0,0,0,0,0,0],"sum_hessian":[1.6287644E3,1.1458157E3,4.829487E2,3.716744E2,7.741413E2,4.3416562E2,4.8783085E1,1.4770464E2,2.2396976E2,5.306787E2,2.4346259E2,6.911965E1,3.6504596E2,2.463028E0,4.6320057E1],"tree_param":{"num_deleted":"0","num_feature":"19","num_nodes":"15","size_leaf_vector":"1"}},{"base_weights":[1.2114111E-3,-5.5906975E-1,3.4606203E-1,-5.876369E-1,-1.7601435E-1,-3.726197E-1,4.7863138E-1,-3.1124929E-2,-1.8503958E-2,3.304943E-2,-3.153411E-2,-3.0313704E-2,-5.8300565E-3,2.7388573E-2,-2.9252319E-2],"categories":[],"categories_nodes":[],"categories_segments":[],"categories_sizes":[],"default_left":[0,0,0,0,0,0,0,0,0,0,0,0,0,0,0],"id":34,"left_children":[1,3,5,7,9,11,13,-1,-1,-1,-1,-1,-1,-1,-1],"loss_changes":[3.1806003E2,6.7596893E0,9.726175E1,4.193039E0,1.7524744E1,9.45578E0,6.3620697E1,0E0,0E0,0E0,0E0,0E0,0E0,0E0,0E0],"parents":[2147483647,0,0,1,1,2,2,3,3,4,4,5,5,6,6],"right_children":[2,4,6,8,10,12,14,-1,-1,-1,-1,-1,-1,-1,-1],"split_conditions":[2.7995293E-3,8.947763E-1,1.1405377E-1,5.766887E-1,2.8226203E-1,6.383548E-4,2.7272728E-1,-3.1124929E-2,-1.8503958E-2,3.304943E-2,-3.153411E-2,-3.0313704E-2,-5.8300565E-3,2.7388573E-2,-2.9252319E-2],"split_indices":[9,16,13,2,1,2,1,0,0,0,0,0,0,0,0],"split_type":[0,0,0,0,0,0,0,0,0,0,0,0,0,0,0],"sum_hessian":[1.6441586E3,6.2617944E2,1.0179792E3,5.8222473E2,4.395466E1,1.5825269E2,8.597265E2,5.0020938E2,8.201539E1,1.5312298E1,2.864236E1,8.202489E1,7.6227806E1,8.077096E2,5.201689E1],"tree_param":{"num_deleted":"0","num_feature":"19","num_nodes":"15","size_leaf_vector":"1"}},{"base_weights":[-1.6290159E-3,-2.765611E-1,7.6265347E-1,-5.514686E-1,2.1554968E-1,8.5075283E-1,-4.0835264E-1,-3.0456081E-2,9.538092E-3,3.522613E-2,-3.1420873E-3,-1.1674902E-2,4.3881305E-2,5.388614E-2,-3.0922426E-2],"categories":[],"categories_nodes":[],"categories_segments":[],"categories_sizes":[],"default_left":[0,0,0,0,0,0,0,0,0,0,0,0,0,0,0],"id":35,"left_children":[1,3,5,7,9,11,13,-1,-1,-1,-1,-1,-1,-1,-1],"loss_changes":[3.4105716E2,1.6160838E2,4.464705E1,3.290097E1,5.8381477E1,1.1850708E1,1.0258221E1,0E0,0E0,0E0,0E0,0E0,0E0,0E0,0E0],"parents":[2147483647,0,0,1,1,2,2,3,3,4,4,5,5,6,6],"right_children":[2,4,6,8,10,12,14,-1,-1,-1,-1,-1,-1,-1,-1],"split_conditions":[5.81027E-3,8.333333E-1,3.9130434E-1,7.414281E-1,2.2733423E-1,9.259259E-2,6.921311E-3,-3.0456081E-2,9.538092E-3,3.522613E-2,-3.1420873E-3,-1.1674902E-2,4.3881305E-2,5.388614E-2,-3.0922426E-2],"split_indices":[6,7,16,17,10,7,3,0,0,0,0,0,0,0,0],"split_type":[0,0,0,0,0,0,0,0,0,0,0,0,0,0,0],"sum_hessian":[1.6211056E3,1.1926992E3,4.2840646E2,7.6514575E2,4.2755344E2,3.986853E2,2.9721148E1,7.1016296E2,5.498281E1,1.5455641E2,2.7299704E2,9.456504E0,3.892288E2,3.1698823E0,2.6551266E1],"tree_param":{"num_deleted":"0","num_feature":"19","num_nodes":"15","size_leaf_vector":"1"}},{"base_weights":[3.5708182E-4,-2.8689152E-1,6.761667E-1,1.0901138E-1,-4.9723354E-1,8.073059E-1,-5.064084E-1,3.0796891E-2,-9.700111E-3,-2.9917255E-2,-1.36825135E-2,4.1671734E-2,1.047781E-2,3.7987944E-2,-2.9538963E-2],"categories":[],"categories_nodes":[],"categories_segments":[],"categories_sizes":[],"default_left":[0,0,0,0,0,0,0,0,0,0,0,0,0,0,0],"id":36,"left_children":[1,3,5,7,9,11,13,-1,-1,-1,-1,-1,-1,-1,-1],"loss_changes":[3.1239774E2,9.409417E1,7.4846375E1,6.042971E1,1.6511978E1,6.579712E0,5.6330357E0,0E0,0E0,0E0,0E0,0E0,0E0,0E0,0E0],"parents":[2147483647,0,0,1,1,2,2,3,3,4,4,5,5,6,6],"right_children":[2,4,6,8,10,12,14,-1,-1,-1,-1,-1,-1,-1,-1],"split_conditions":[1.8181819E-1,7.0630777E-1,5.014377E-1,3.352876E-1,5.555556E-1,9.6768844E-1,7.2462016E-1,3.0796891E-2,-9.700111E-3,-2.9917255E-2,-1.36825135E-2,4.1671734E-2,1.047781E-2,3.7987944E-2,-2.9538963E-2],"split_indices":[1,7,6,13,3,0,11,0,0,0,0,0,0,0,0],"split_type":[0,0,0,0,0,0,0,0,0,0,0,0,0,0,0],"sum_hessian":[1.6072584E3,1.1282699E3,4.7898853E2,3.9163034E2,7.366396E2,4.3146E2,4.752852E1,1.4612982E2,2.4550052E2,5.060922E2,2.3054742E2,4.1301215E2,1.8447855E1,2.469115E0,4.5059406E1],"tree_param":{"num_deleted":"0","num_feature":"19","num_nodes":"15","size_leaf_vector":"1"}},{"base_weights":[1.2707709E-3,-5.509763E-1,3.3298296E-1,-5.7973146E-1,-1.6860478E-1,-2.3738298E-1,4.902712E-1,-3.0769551E-2,-1.7962452E-2,3.2065146E-2,-3.110837E-2,-2.824223E-2,3.9976607E-3,-2.263721E-2,2.7966175E-2],"categories":[],"categories_nodes":[],"categories_segments":[],"categories_sizes":[],"default_left":[0,0,0,0,0,0,0,0,0,0,0,0,0,0,0],"id":37,"left_children":[1,3,5,7,9,11,13,-1,-1,-1,-1,-1,-1,-1,-1],"loss_changes":[2.9820087E2,6.6187744E0,9.135194E1,4.242569E0,1.6611835E1,2.2958826E1,5.2183105E1,0E0,0E0,0E0,0E0,0E0,0E0,0E0,0E0],"parents":[2147483647,0,0,1,1,2,2,3,3,4,4,5,5,6,6],"right_children":[2,4,6,8,10,12,14,-1,-1,-1,-1,-1,-1,-1,-1],"split_conditions":[2.7995293E-3,8.947763E-1,5.225916E-1,5.766887E-1,2.8226203E-1,6.383548E-4,2.1258003E-1,-3.0769551E-2,-1.7962452E-2,3.2065146E-2,-3.110837E-2,-2.824223E-2,3.9976607E-3,-2.263721E-2,2.7966175E-2],"split_indices":[9,16,16,2,1,2,10,0,0,0,0,0,0,0,0],"split_type":[0,0,0,0,0,0,0,0,0,0,0,0,0,0,0],"sum_hessian":[1.6258472E3,6.0986304E2,1.0159842E3,5.667277E2,4.313532E1,2.19503E2,7.9648114E2,4.8628735E2,8.044036E1,1.5336196E1,2.7799122E1,1.0764419E2,1.11858826E2,5.396394E1,7.425172E2],"tree_param":{"num_deleted":"0","num_feature":"19","num_nodes":"15","size_leaf_vector":"1"}},{"base_weights":[-1.6502783E-3,6.731186E-1,-2.9665673E-1,-3.4913018E-1,7.6551324E-1,-4.7487712E-1,5.094417E-1,-3.14605E-2,1.9780956E-2,1.2501932E-2,4.2739622E-2,-2.8990556E-2,3.585896E-3,3.958123E-2,1.8729729E-3],"categories":[],"categories_nodes":[],"categories_segments":[],"categories_sizes":[],"default_left":[0,0,0,0,0,0,0,0,0,0,0,0,0,0,0],"id":38,"left_children":[1,3,5,7,9,11,13,-1,-1,-1,-1,-1,-1,-1,-1],"loss_changes":[3.1884372E2,4.628824E1,1.6035217E2,8.816896E0,2.0365753E1,5.242018E1,2.6909798E1,0E0,0E0,0E0,0E0,0E0,0E0,0E0,0E0],"parents":[2147483647,0,0,1,1,2,2,3,3,4,4,5,5,6,6],"right_children":[2,4,6,8,10,12,14,-1,-1,-1,-1,-1,-1,-1,-1],"split_conditions":[2.3913044E-1,1.330643E-1,1E0,1E0,3.885508E-1,9.3036133E-1,2.1650879E-1,-3.14605E-2,1.9780956E-2,1.2501932E-2,4.2739622E-2,-2.8990556E-2,3.585896E-3,3.958123E-2,1.8729729E-3],"split_indices":[16,7,9,6,8,7,10,0,0,0,0,0,0,0,0],"split_type":[0,0,0,0,0,0,0,0,0,0,0,0,0,0,0],"sum_hessian":[1.5997343E3,4.8625058E2,1.1134836E3,4.0075798E1,4.461748E2,9.122132E2,2.0127042E2,2.9236057E1,1.083974E1,6.642941E1,3.797454E2,7.652429E2,1.4697028E2,1.2553804E2,7.5732376E1],"tree_param":{"num_deleted":"0","num_feature":"19","num_nodes":"15","size_leaf_vector":"1"}},{"base_weights":[5.1125645E-4,-2.801873E-1,6.572895E-1,1.0622063E-1,-4.886554E-1,7.8329825E-1,-4.9864346E-1,2.9759336E-2,-9.393001E-3,-2.9568393E-2,-1.31830275E-2,4.128666E-2,2.0672822E-2,3.711269E-2,-2.9177675E-2],"categories":[],"categories_nodes":[],"categories_segments":[],"categories_sizes":[],"default_left":[0,0,0,0,0,0,0,0,0,0,0,0,0,0,0],"id":39,"left_children":[1,3,5,7,9,11,13,-1,-1,-1,-1,-1,-1,-1,-1],"loss_changes":[2.9256604E2,8.961094E1,6.9602005E1,5.625495E1,1.6537521E1,6.3890076E0,5.4187355E0,0E0,0E0,0E0,0E0,0E0,0E0,0E0,0E0],"parents":[2147483647,0,0,1,1,2,2,3,3,4,4,5,5,6,6],"right_children":[2,4,6,8,10,12,14,-1,-1,-1,-1,-1,-1,-1,-1],"split_conditions":[1.8181819E-1,7.0630777E-1,5.014377E-1,3.352876E-1,5.555556E-1,1.6397534E-1,7.2462016E-1,2.9759336E-2,-9.393001E-3,-2.9568393E-2,-1.31830275E-2,4.128666E-2,2.0672822E-2,3.711269E-2,-2.9177675E-2],"split_indices":[1,7,6,13,3,9,11,0,0,0,0,0,0,0,0],"split_type":[0,0,0,0,0,0,0,0,0,0,0,0,0,0,0],"sum_hessian":[1.5849574E3,1.1107925E3,4.7416498E2,3.8943747E2,7.21355E2,4.278475E2,4.631748E1,1.458724E2,2.4356506E2,4.9414456E2,2.2721042E2,3.8270413E2,4.514336E1,2.4705524E0,4.3846924E1],"tree_param":{"num_deleted":"0","num_feature":"19","num_nodes":"15","size_leaf_vector":"1"}},{"base_weights":[1.3412879E-3,-4.539904E-1,3.8470614E-1,-5.3616124E-1,2.0012112E-1,-3.8013822E-1,5.1433885E-1,-2.75938E-2,-2.798247E-3,-2.9453997E-2,2.7132496E-2,-2.5604418E-2,4.065124E-2,-2.081752E-2,2.8625716E-2],"categories":[],"categories_nodes":[],"categories_segments":[],"categories_sizes":[],"default_left":[0,0,0,0,0,0,0,0,0,0,0,0,0,0,0],"id":40,"left_children":[1,3,5,7,9,11,13,-1,-1,-1,-1,-1,-1,-1,-1],"loss_changes":[2.8074112E2,3.9620605E1,8.67672E1,4.899597E0,2.2695011E1,2.0429338E1,4.068506E1,0E0,0E0,0E0,0E0,0E0,0E0,0E0,0E0],"parents":[2147483647,0,0,1,1,2,2,3,3,4,4,5,5,6,6],"right_children":[2,4,6,8,10,12,14,-1,-1,-1,-1,-1,-1,-1,-1],"split_conditions":[1.08144514E-1,8.003907E-1,2.2554657E-1,9.144627E-1,4.0443543E-1,3.8333333E-1,4.0443543E-1,-2.75938E-2,-2.798247E-3,-2.9453997E-2,2.7132496E-2,-2.5604418E-2,4.065124E-2,-2.081752E-2,2.8625716E-2],"split_indices":[9,0,10,16,7,13,7,0,0,0,0,0,0,0,0],"split_type":[0,0,0,0,0,0,0,0,0,0,0,0,0,0,0],"sum_hessian":[1.6062953E3,7.341469E2,8.721483E2,6.5237463E2,8.17723E1,1.2611667E2,7.460316E2,6.315572E2,2.081745E1,2.453131E1,5.724099E1,1.1407239E2,1.2044283E1,4.3527206E1,7.025044E2],"tree_param":{"num_deleted":"0","num_feature":"19","num_nodes":"15","size_leaf_vector":"1"}},{"base_weights":[-1.8806845E-3,-2.6596776E-1,7.2116214E-1,-5.376783E-1,2.0390837E-1,8.035785E-1,-3.9287785E-1,-2.9780565E-2,9.179264E-3,3.291543E-2,-2.750391E-3,-1.1616726E-2,4.1468944E-2,5.2312322E-2,-3.0303022E-2],"categories":[],"categories_nodes":[],"categories_segments":[],"categories_sizes":[],"default_left":[0,0,0,0,0,0,0,0,0,0,0,0,0,0,0],"id":41,"left_children":[1,3,5,7,9,11,13,-1,-1,-1,-1,-1,-1,-1,-1],"loss_changes":[3.0139807E2,1.4771663E2,3.90876E1,3.07305E1,4.9959373E1,1.0710327E1,9.764349E0,0E0,0E0,0E0,0E0,0E0,0E0,0E0,0E0],"parents":[2147483647,0,0,1,1,2,2,3,3,4,4,5,5,6,6],"right_children":[2,4,6,8,10,12,14,-1,-1,-1,-1,-1,-1,-1,-1],"split_conditions":[5.81027E-3,8.333333E-1,3.9130434E-1,7.414281E-1,2.2733423E-1,9.259259E-2,6.921311E-3,-2.9780565E-2,9.179264E-3,3.291543E-2,-2.750391E-3,-1.1616726E-2,4.1468944E-2,5.2312322E-2,-3.0303022E-2],"split_indices":[6,7,16,17,10,7,3,0,0,0,0,0,0,0,0],"split_type":[0,0,0,0,0,0,0,0,0,0,0,0,0,0,0],"sum_hessian":[1.57644E3,1.1551577E3,4.2128232E2,7.318271E2,4.2333057E2,3.9252228E2,2.8760017E1,6.775773E2,5.42498E1,1.530986E2,2.7023196E2,9.344037E0,3.8317825E2,3.206469E0,2.5553549E1],"tree_param":{"num_deleted":"0","num_feature":"19","num_nodes":"15","size_leaf_vector":"1"}},{"base_weights":[5.643334E-4,-2.73671E-1,6.3939106E-1,1.2029199E-1,-4.7121197E-1,7.60536E-1,-4.9095386E-1,1.6434932E-2,-2.9748244E-2,-2.8788347E-2,-1.2421827E-2,2.363827E-2,4.07281E-2,3.6215696E-2,-2.881816E-2],"categories":[],"categories_nodes":[],"categories_segments":[],"categories_sizes":[],"default_left":[0,0,0,0,0,0,0,0,0,0,0,0,0,0,0],"id":42,"left_children":[1,3,5,7,9,11,13,-1,-1,-1,-1,-1,-1,-1,-1],"loss_changes":[2.740208E2,8.5224014E1,6.47038E1,5.4793865E1,1.6839035E1,6.217804E0,5.200691E0,0E0,0E0,0E0,0E0,0E0,0E0,0E0,0E0],"parents":[2147483647,0,0,1,1,2,2,3,3,4,4,5,5,6,6],"right_children":[2,4,6,8,10,12,14,-1,-1,-1,-1,-1,-1,-1,-1],"split_conditions":[1.8181819E-1,6.8844676E-1,5.014377E-1,5.81027E-3,5.555556E-1,2.7272728E-1,7.2462016E-1,1.6434932E-2,-2.9748244E-2,-2.8788347E-2,-1.2421827E-2,2.363827E-2,4.07281E-2,3.6215696E-2,-2.881816E-2],"split_indices":[1,7,6,6,3,1,11,0,0,0,0,0,0,0,0],"split_type":[0,0,0,0,0,0,0,0,0,0,0,0,0,0,0],"sum_hessian":[1.5621464E3,1.0933605E3,4.687859E2,3.6527353E2,7.28087E2,4.237026E2,4.5083263E1,2.832752E2,8.199834E1,4.9444513E2,2.3364186E2,6.851364E1,3.5518896E2,2.469197E0,4.2614067E1],"tree_param":{"num_deleted":"0","num_feature":"19","num_nodes":"15","size_leaf_vector":"1"}},{"base_weights":[1.4175363E-3,-5.3600574E-1,3.100624E-1,-5.651719E-1,-1.5801692E-1,-3.5816896E-1,4.297447E-1,-3.0126084E-2,-1.6912254E-2,3.0761302E-2,-3.0532548E-2,-2.0015446E-2,4.515175E-2,2.4603233E-2,-2.8247265E-2],"categories":[],"categories_nodes":[],"categories_segments":[],"categories_sizes":[],"default_left":[0,0,0,0,0,0,0,0,0,0,0,0,0,0,0],"id":43,"left_children":[1,3,5,7,9,11,13,-1,-1,-1,-1,-1,-1,-1,-1],"loss_changes":[2.63485E2,6.2991486E0,8.0848976E1,4.3524933E0,1.5389932E1,8.536036E0,5.335228E1,0E0,0E0,0E0,0E0,0E0,0E0,0E0,0E0],"parents":[2147483647,0,0,1,1,2,2,3,3,4,4,5,5,6,6],"right_children":[2,4,6,8,10,12,14,-1,-1,-1,-1,-1,-1,-1,-1],"split_conditions":[2.7995293E-3,8.947763E-1,1.1405377E-1,5.766887E-1,2.8226203E-1,3.026316E-1,2.7272728E-1,-3.0126084E-2,-1.6912254E-2,3.0761302E-2,-3.0532548E-2,-2.0015446E-2,4.515175E-2,2.4603233E-2,-2.8247265E-2],"split_indices":[9,16,13,2,1,17,1,0,0,0,0,0,0,0,0],"split_type":[0,0,0,0,0,0,0,0,0,0,0,0,0,0,0],"sum_hessian":[1.586473E3,5.784752E2,1.00799786E3,5.3657684E2,4.1898323E1,1.5280988E2,8.55188E2,4.5932227E2,7.7254616E1,1.5337604E1,2.656072E1,1.4852974E2,4.2801485E0,8.052427E2,4.994527E1],"tree_param":{"num_deleted":"0","num_feature":"19","num_nodes":"15","size_leaf_vector":"1"}},{"base_weights":[-2.0154223E-3,-2.603069E-1,7.003446E-1,-5.3018963E-1,1.9821312E-1,8.0454415E-1,-1.4804067E-1,-2.9424185E-2,8.981456E-3,2.4681805E-2,-8.441809E-3,-8.729953E-3,4.0961824E-2,2.3224894E-2,-3.309808E-2],"categories":[],"categories_nodes":[],"categories_segments":[],"categories_sizes":[],"default_left":[0,0,0,0,0,0,0,0,0,0,0,0,0,0,0],"id":44,"left_children":[1,3,5,7,9,11,13,-1,-1,-1,-1,-1,-1,-1,-1],"loss_changes":[2.8214377E2,1.4081534E2,3.708528E1,2.973465E1,4.5846317E1,5.502884E0,1.4972524E1,0E0,0E0,0E0,0E0,0E0,0E0,0E0,0E0],"parents":[2147483647,0,0,1,1,2,2,3,3,4,4,5,5,6,6],"right_children":[2,4,6,8,10,12,14,-1,-1,-1,-1,-1,-1,-1,-1],"split_conditions":[5.81027E-3,8.333333E-1,3.478261E-1,7.414281E-1,1.0289798E-1,1.3259059E-1,5.8710072E-2,-2.9424185E-2,8.981456E-3,2.4681805E-2,-8.441809E-3,-8.729953E-3,4.0961824E-2,2.3224894E-2,-3.309808E-2],"split_indices":[6,7,16,17,2,17,1,0,0,0,0,0,0,0,0],"split_type":[0,0,0,0,0,0,0,0,0,0,0,0,0,0,0],"sum_hessian":[1.5532465E3,1.1360835E3,4.1716296E2,7.150513E2,4.2103223E2,3.7157715E2,4.558581E1,6.6094214E2,5.4109104E1,2.3308597E2,1.8794624E2,5.3322735E0,3.6624487E2,2.084134E1,2.474447E1],"tree_param":{"num_deleted":"0","num_feature":"19","num_nodes":"15","size_leaf_vector":"1"}},{"base_weights":[4.007286E-4,4.1253656E-1,-4.0381026E-1,5.2893776E-1,-5.467189E-1,-4.4334865E-1,7.7729654E-1,3.521127E-2,3.0820451E-3,-2.939688E-2,3.9857972E-2,-2.6670223E-2,-8.797181E-3,1.309658E-2,3.9687503E-2],"categories":[],"categories_nodes":[],"categories_segments":[],"categories_sizes":[],"default_left":[0,0,0,0,0,0,0,0,0,0,0,0,0,0,0],"id":45,"left_children":[1,3,5,7,9,11,13,-1,-1,-1,-1,-1,-1,-1,-1],"loss_changes":[2.5680215E2,8.551576E1,3.6687904E1,5.575377E1,5.0712395E0,1.8055634E1,8.928299E-3,0E0,0E0,0E0,0E0,0E0,0E0,0E0,0E0],"parents":[2147483647,0,0,1,1,2,2,3,3,4,4,5,5,6,6],"right_children":[2,4,6,8,10,12,14,-1,-1,-1,-1,-1,-1,-1,-1],"split_conditions":[7.0630777E-1,5.014377E-1,4.5454547E-1,8.297184E-1,3.614423E-1,6.666667E-1,5.9037036E-3,3.521127E-2,3.0820451E-3,-2.939688E-2,3.9857972E-2,-2.6670223E-2,-8.797181E-3,1.309658E-2,3.9687503E-2],"split_indices":[7,6,1,16,1,3,10,0,0,0,0,0,0,0,0],"split_type":[0,0,0,0,0,0,0,0,0,0,0,0,0,0,0],"sum_hessian":[1.5395237E3,7.6227905E2,7.772446E2,6.8018976E2,8.2089264E1,7.5267303E2,2.4571632E1,4.9427524E2,1.8591452E2,8.019216E1,1.8971035E0,5.6230646E2,1.9036658E2,1.2836621E0,2.3287971E1],"tree_param":{"num_deleted":"0","num_feature":"19","num_nodes":"15","size_leaf_vector":"1"}},{"base_weights":[1.8682043E-3,-5.288026E-1,2.9940107E-1,-5.5831015E-1,-1.4940879E-1,-2.3012693E-1,4.4286552E-1,-2.9821996E-2,-1.6473282E-2,3.011745E-2,-3.0159403E-2,-2.744869E-2,3.3139798E-3,-2.1844381E-2,2.527678E-2],"categories":[],"categories_nodes":[],"categories_segments":[],"categories_sizes":[],"default_left":[0,0,0,0,0,0,0,0,0,0,0,0,0,0,0],"id":46,"left_children":[1,3,5,7,9,11,13,-1,-1,-1,-1,-1,-1,-1,-1],"loss_changes":[2.4786096E2,6.2300873E0,7.651495E1,4.3661804E0,1.4712141E1,2.036319E1,4.3874634E1,0E0,0E0,0E0,0E0,0E0,0E0,0E0,0E0],"parents":[2147483647,0,0,1,1,2,2,3,3,4,4,5,5,6,6],"right_children":[2,4,6,8,10,12,14,-1,-1,-1,-1,-1,-1,-1,-1],"split_conditions":[2.7995293E-3,8.947763E-1,5.225916E-1,5.766887E-1,2.8226203E-1,6.383548E-4,2.1258003E-1,-2.9821996E-2,-1.6473282E-2,3.011745E-2,-3.0159403E-2,-2.744869E-2,3.3139798E-3,-2.1844381E-2,2.527678E-2],"split_indices":[9,16,16,2,1,2,10,0,0,0,0,0,0,0,0],"split_type":[0,0,0,0,0,0,0,0,0,0,0,0,0,0,0],"sum_hessian":[1.5678104E3,5.62958E2,1.0048524E3,5.218957E2,4.1062332E1,2.1407957E2,7.907729E2,4.459807E2,7.591495E1,1.53331375E1,2.5729195E1,1.02725174E2,1.1135439E2,5.218841E1,7.385845E2],"tree_param":{"num_deleted":"0","num_feature":"19","num_nodes":"15","size_leaf_vector":"1"}},{"base_weights":[-2.3159187E-3,6.196137E-1,-2.7924746E-1,-3.80799E-1,7.0121694E-1,-4.6077865E-1,4.5656082E-1,-2.7254641E-2,2.6021753E-2,1.2264344E-2,3.9724316E-2,-2.703373E-2,1.4659327E-2,3.7659217E-2,3.4529958E-3],"categories":[],"categories_nodes":[],"categories_segments":[],"categories_sizes":[],"default_left":[0,0,0,0,0,0,0,0,0,0,0,0,0,0,0],"id":47,"left_children":[1,3,5,7,9,11,13,-1,-1,-1,-1,-1,-1,-1,-1],"loss_changes":[2.6404486E2,3.8826523E1,1.4189618E2,5.6540956E0,1.8390747E1,5.144165E1,2.413308E1,0E0,0E0,0E0,0E0,0E0,0E0,0E0,0E0],"parents":[2147483647,0,0,1,1,2,2,3,3,4,4,5,5,6,6],"right_children":[2,4,6,8,10,12,14,-1,-1,-1,-1,-1,-1,-1,-1],"split_conditions":[2.3913044E-1,1.2962963E-1,9.7029656E-1,3.713666E-1,4.4401845E-1,1E0,2.1258003E-1,-2.7254641E-2,2.6021753E-2,1.2264344E-2,3.9724316E-2,-2.703373E-2,1.4659327E-2,3.7659217E-2,3.4529958E-3],"split_indices":[16,7,9,0,8,7,10,0,0,0,0,0,0,0,0],"split_type":[0,0,0,0,0,0,0,0,0,0,0,0,0,0,0],"sum_hessian":[1.5310728E3,4.7132935E2,1.0597434E3,3.5270084E1,4.3605927E2,8.5033185E2,2.0941151E2,3.0166025E1,5.1040587E0,7.4671455E1,3.6138782E2,7.691136E2,8.121825E1,1.18080086E2,9.1331436E1],"tree_param":{"num_deleted":"0","num_feature":"19","num_nodes":"15","size_leaf_vector":"1"}},{"base_weights":[6.269253E-4,-2.6263076E-1,6.109767E-1,3.3664054E-1,-3.84826E-1,7.2467977E-1,-4.776853E-1,3.767097E-2,-2.7105063E-2,-2.8098827E-2,-1.2053989E-2,3.7518214E-2,8.082399E-3,3.514842E-2,-2.8240353E-2],"categories":[],"categories_nodes":[],"categories_segments":[],"categories_sizes":[],"default_left":[0,0,0,0,0,0,0,0,0,0,0,0,0,0,0],"id":48,"left_children":[1,3,5,7,9,11,13,-1,-1,-1,-1,-1,-1,-1,-1],"loss_changes":[2.4410922E2,7.785535E1,5.7016296E1,6.644418E1,2.2327301E1,5.878891E0,4.9122534E0,0E0,0E0,0E0,0E0,0E0,0E0,0E0,0E0],"parents":[2147483647,0,0,1,1,2,2,3,3,4,4,5,5,6,6],"right_children":[2,4,6,8,10,12,14,-1,-1,-1,-1,-1,-1,-1,-1],"split_conditions":[1.8181819E-1,4.108158E-1,5.014377E-1,5.81027E-3,7.4074075E-2,9.6768844E-1,7.2462016E-1,3.767097E-2,-2.7105063E-2,-2.8098827E-2,-1.2053989E-2,3.7518214E-2,8.082399E-3,3.514842E-2,-2.8240353E-2],"split_indices":[1,7,6,6,8,0,11,0,0,0,0,0,0,0,0],"split_type":[0,0,0,0,0,0,0,0,0,0,0,0,0,0,0],"sum_hessian":[1.5172341E3,1.0604204E3,4.568137E2,1.7930684E2,8.8111365E2,4.1391727E2,4.289641E1,1.2171919E2,5.7587635E1,3.9339294E2,4.877207E2,3.955407E2,1.8376577E1,2.4620795E0,4.043433E1],"tree_param":{"num_deleted":"0","num_feature":"19","num_nodes":"15","size_leaf_vector":"1"}},{"base_weights":[2.054319E-3,-4.335572E-1,3.485639E-1,-5.1588655E-1,1.8867747E-1,-4.5538375E-1,4.5311987E-1,-3.031072E-2,-2.1269312E-2,-2.876159E-2,2.5309531E-2,-3.081956E-2,2.9582812E-2,-2.043761E-2,2.5225827E-2],"categories":[],"categories_nodes":[],"categories_segments":[],"categories_sizes":[],"default_left":[0,0,0,0,0,0,0,0,0,0,0,0,0,0,0],"id":49,"left_children":[1,3,5,7,9,11,13,-1,-1,-1,-1,-1,-1,-1,-1],"loss_changes":[2.3390363E2,3.5267456E1,7.275387E1,4.7007446E0,1.9926975E1,1.7193474E1,3.406021E1,0E0,0E0,0E0,0E0,0E0,0E0,0E0,0E0],"parents":[2147483647,0,0,1,1,2,2,3,3,4,4,5,5,6,6],"right_children":[2,4,6,8,10,12,14,-1,-1,-1,-1,-1,-1,-1,-1],"split_conditions":[1.08144514E-1,8.003907E-1,2.1258003E-1,3.2147393E-1,4.0443543E-1,1.3284719E-1,4.0443543E-1,-3.031072E-2,-2.1269312E-2,-2.876159E-2,2.5309531E-2,-3.081956E-2,2.9582812E-2,-2.043761E-2,2.5225827E-2],"split_indices":[9,0,10,10,7,14,7,0,0,0,0,0,0,0,0],"split_type":[0,0,0,0,0,0,0,0,0,0,0,0,0,0,0],"sum_hessian":[1.5476084E3,6.8553845E2,8.6206995E2,6.055832E2,7.995526E1,9.882596E1,7.63244E2,3.002285E2,3.0535474E2,2.3237104E1,5.6718155E1,8.601101E1,1.2814948E1,4.2562347E1,7.2068164E2],"tree_param":{"num_deleted":"0","num_feature":"19","num_nodes":"15","size_leaf_vector":"1"}},{"base_weights":[-2.7415433E-3,-2.5022674E-1,6.65434E-1,-5.1791584E-1,1.8867314E-1,7.421731E-1,-3.7709108E-1,-2.8832043E-2,8.723646E-3,2.3643313E-2,-8.333865E-3,-1.2153014E-2,3.8363647E-2,5.061078E-2,-2.968785E-2],"categories":[],"categories_nodes":[],"categories_segments":[],"categories_sizes":[],"default_left":[0,0,0,0,0,0,0,0,0,0,0,0,0,0,0],"id":50,"left_children":[1,3,5,7,9,11,13,-1,-1,-1,-1,-1,-1,-1,-1],"loss_changes":[2.4946907E2,1.2943564E2,3.290074E1,2.7915054E1,4.227046E1,9.586792E0,9.215827E0,0E0,0E0,0E0,0E0,0E0,0E0,0E0,0E0],"parents":[2147483647,0,0,1,1,2,2,3,3,4,4,5,5,6,6],"right_children":[2,4,6,8,10,12,14,-1,-1,-1,-1,-1,-1,-1,-1],"split_conditions":[5.81027E-3,8.333333E-1,3.9130434E-1,7.414281E-1,1.0289798E-1,9.259259E-2,6.921311E-3,-2.8832043E-2,8.723646E-3,2.3643313E-2,-8.333865E-3,-1.2153014E-2,3.8363647E-2,5.061078E-2,-2.968785E-2],"split_indices":[6,7,16,17,2,7,3,0,0,0,0,0,0,0,0],"split_type":[0,0,0,0,0,0,0,0,0,0,0,0,0,0,0],"sum_hessian":[1.5066027E3,1.0998539E3,4.067488E2,6.8306573E2,4.1678815E2,3.791296E2,2.7619196E1,6.298151E2,5.325062E1,2.3139682E2,1.8539134E2,9.203041E0,3.6992657E2,3.2308068E0,2.438839E1],"tree_param":{"num_deleted":"0","num_feature":"19","num_nodes":"15","size_leaf_vector":"1"}},{"base_weights":[6.475002E-4,-2.5651327E-1,5.963644E-1,9.414096E-2,-4.5698372E-1,7.062585E-1,-4.707621E-1,4.140523E-2,-3.658505E-3,-2.8334577E-2,-1.1244339E-2,2.137273E-2,3.7991833E-2,3.4356296E-2,-2.7920863E-2],"categories":[],"categories_nodes":[],"categories_segments":[],"categories_sizes":[],"default_left":[0,0,0,0,0,0,0,0,0,0,0,0,0,0,0],"id":51,"left_children":[1,3,5,7,9,11,13,-1,-1,-1,-1,-1,-1,-1,-1],"loss_changes":[2.2914304E2,7.348518E1,5.3222046E1,4.683004E1,1.6802826E1,5.7891846E0,4.718403E0,0E0,0E0,0E0,0E0,0E0,0E0,0E0,0E0],"parents":[2147483647,0,0,1,1,2,2,3,3,4,4,5,5,6,6],"right_children":[2,4,6,8,10,12,14,-1,-1,-1,-1,-1,-1,-1,-1],"split_conditions":[1.8181819E-1,7.0630777E-1,5.014377E-1,1.8786351E-1,5.555556E-1,2.7272728E-1,7.2462016E-1,4.140523E-2,-3.658505E-3,-2.8334577E-2,-1.1244339E-2,2.137273E-2,3.7991833E-2,3.4356296E-2,-2.7920863E-2],"split_indices":[1,7,6,13,3,1,11,0,0,0,0,0,0,0,0],"split_type":[0,0,0,0,0,0,0,0,0,0,0,0,0,0,0],"sum_hessian":[1.493762E3,1.0437587E3,4.500033E2,3.79858E2,6.6390063E2,4.0829474E2,4.170857E1,6.9783E1,3.10075E2,4.4983203E2,2.1406863E2,6.726207E1,3.4103265E2,2.4539497E0,3.925462E1],"tree_param":{"num_deleted":"0","num_feature":"19","num_nodes":"15","size_leaf_vector":"1"}},{"base_weights":[2.1749039E-3,-5.149826E-1,2.797055E-1,-5.451098E-1,-1.4009075E-1,-3.4566206E-1,3.894076E-1,-2.9250422E-2,-1.5562384E-2,2.9295245E-2,-2.975669E-2,-1.9410841E-2,4.390141E-2,2.2315415E-2,-2.7391171E-2],"categories":[],"categories_nodes":[],"categories_segments":[],"categories_sizes":[],"default_left":[0,0,0,0,0,0,0,0,0,0,0,0,0,0,0],"id":52,"left_children":[1,3,5,7,9,11,13,-1,-1,-1,-1,-1,-1,-1,-1],"loss_changes":[2.1951111E2,5.9562225E0,6.841515E1,4.427719E0,1.3918581E1,8.103319E0,4.5425827E1,0E0,0E0,0E0,0E0,0E0,0E0,0E0,0E0],"parents":[2147483647,0,0,1,1,2,2,3,3,4,4,5,5,6,6],"right_children":[2,4,6,8,10,12,14,-1,-1,-1,-1,-1,-1,-1,-1],"split_conditions":[2.7995293E-3,8.947763E-1,1.1405377E-1,5.766887E-1,2.8226203E-1,3.026316E-1,2.7272728E-1,-2.9250422E-2,-1.5562384E-2,2.9295245E-2,-2.975669E-2,-1.9410841E-2,4.390141E-2,2.2315415E-2,-2.7391171E-2],"split_indices":[9,16,13,2,1,17,1,0,0,0,0,0,0,0,0],"split_type":[0,0,0,0,0,0,0,0,0,0,0,0,0,0,0],"sum_hessian":[1.5274025E3,5.331192E2,9.9428326E2,4.9304303E2,4.007616E1,1.4806624E2,8.4621704E2,4.1990292E2,7.31401E1,1.5330163E1,2.4745998E1,1.4374997E2,4.3162656E0,7.982763E2,4.7940746E1],"tree_param":{"num_deleted":"0","num_feature":"19","num_nodes":"15","size_leaf_vector":"1"}},{"base_weights":[-2.891804E-3,-2.2441964E-1,7.070517E-1,-3.80362E-1,4.366354E-1,7.523445E-1,-3.7434745E-1,1.1109693E-2,-2.4751341E-2,2.8385688E-2,-1.9126846E-2,-4.241422E-3,3.8415205E-2,4.280776E-2,-3.0938003E-2],"categories":[],"categories_nodes":[],"categories_segments":[],"categories_sizes":[],"default_left":[0,0,0,0,0,0,0,0,0,0,0,0,0,0,0],"id":53,"left_children":[1,3,5,7,9,11,13,-1,-1,-1,-1,-1,-1,-1,-1],"loss_changes":[2.335798E2,1.1685658E2,1.7582123E1,6.342862E1,2.3466908E1,4.599228E0,5.001028E0,0E0,0E0,0E0,0E0,0E0,0E0,0E0,0E0],"parents":[2147483647,0,0,1,1,2,2,3,3,4,4,5,5,6,6],"right_children":[2,4,6,8,10,12,14,-1,-1,-1,-1,-1,-1,-1,-1],"split_conditions":[5.014377E-1,9.5377374E-1,3.9130434E-1,2.3913044E-1,4.118714E-1,9.259259E-2,2.2223979E-1,1.1109693E-2,-2.4751341E-2,2.8385688E-2,-1.9126846E-2,-4.241422E-3,3.8415205E-2,4.280776E-2,-3.0938003E-2],"split_indices":[6,9,16,16,3,7,3,0,0,0,0,0,0,0,0],"split_type":[0,0,0,0,0,0,0,0,0,0,0,0,0,0,0],"sum_hessian":[1.4831852E3,1.1309668E3,3.5221835E2,9.154399E2,2.1552695E2,3.383513E2,1.3867058E1,1.4620497E2,7.692349E2,1.8606161E2,2.9465336E1,6.248848E0,3.3210245E2,1.883187E0,1.19838705E1],"tree_param":{"num_deleted":"0","num_feature":"19","num_nodes":"15","size_leaf_vector":"1"}},{"base_weights":[8.4598176E-4,-2.5008836E-1,5.825444E-1,1.1016522E-1,-4.407658E-1,6.887436E-1,-4.6352893E-1,1.4842528E-2,-2.8480982E-2,-2.7608922E-2,-1.0568504E-2,3.6554065E-2,1.6966065E-2,3.3644583E-2,-2.759171E-2],"categories":[],"categories_nodes":[],"categories_segments":[],"categories_sizes":[],"default_left":[0,0,0,0,0,0,0,0,0,0,0,0,0,0,0],"id":54,"left_children":[1,3,5,7,9,11,13,-1,-1,-1,-1,-1,-1,-1,-1],"loss_changes":[2.1490334E2,7.07028E1,4.9611084E1,4.5447308E1,1.7077835E1,5.7169037E0,4.535081E0,0E0,0E0,0E0,0E0,0E0,0E0,0E0,0E0],"parents":[2147483647,0,0,1,1,2,2,3,3,4,4,5,5,6,6],"right_children":[2,4,6,8,10,12,14,-1,-1,-1,-1,-1,-1,-1,-1],"split_conditions":[1.8181819E-1,6.8844676E-1,5.014377E-1,5.81027E-3,5.555556E-1,1.6397534E-1,7.2462016E-1,1.4842528E-2,-2.8480982E-2,-2.7608922E-2,-1.0568504E-2,3.6554065E-2,1.6966065E-2,3.3644583E-2,-2.759171E-2],"split_indices":[1,7,6,6,3,9,11,0,0,0,0,0,0,0,0],"split_type":[0,0,0,0,0,0,0,0,0,0,0,0,0,0,0],"sum_hessian":[1.4702643E3,1.0275623E3,4.4270203E2,3.557858E2,6.717764E2,4.0221048E2,4.049153E1,2.7957193E2,7.621388E1,4.512209E2,2.2055554E2,3.5776923E2,4.444125E1,2.4422042E0,3.8049328E1],"tree_param":{"num_deleted":"0","num_feature":"19","num_nodes":"15","size_leaf_vector":"1"}},{"base_weights":[1.953688E-3,-5.0824064E-1,2.6948768E-1,-5.386622E-1,-1.3298707E-1,-4.6408722E-1,3.5809103E-1,-2.8985826E-2,-1.50267435E-2,2.8592864E-2,-2.9423444E-2,-3.060235E-2,7.351374E-3,-2.0688249E-2,2.1410765E-2],"categories":[],"categories_nodes":[],"categories_segments":[],"categories_sizes":[],"default_left":[0,0,0,0,0,0,0,0,0,0,0,0,0,0,0],"id":55,"left_children":[1,3,5,7,9,11,13,-1,-1,-1,-1,-1,-1,-1,-1],"loss_changes":[2.0592555E2,5.8529053E0,6.449355E1,4.5157013E0,1.3257201E1,9.773247E0,4.8002953E1,0E0,0E0,0E0,0E0,0E0,0E0,0E0,0E0],"parents":[2147483647,0,0,1,1,2,2,3,3,4,4,5,5,6,6],"right_children":[2,4,6,8,10,12,14,-1,-1,-1,-1,-1,-1,-1,-1],"split_conditions":[2.7995293E-3,8.947763E-1,2.1258003E-1,5.766887E-1,2.8226203E-1,1.3284719E-1,4.0443543E-1,-2.8985826E-2,-1.50267435E-2,2.8592864E-2,-2.9423444E-2,-3.060235E-2,7.351374E-3,-2.0688249E-2,2.1410765E-2],"split_indices":[9,16,10,2,1,14,7,0,0,0,0,0,0,0,0],"split_type":[0,0,0,0,0,0,0,0,0,0,0,0,0,0,0],"sum_hessian":[1.5066713E3,5.179766E2,9.886947E2,4.7873077E2,3.9245853E1,1.06091545E2,8.8260315E2,4.0710876E2,7.162201E1,1.5305522E1,2.3940334E1,8.541082E1,2.068073E1,7.3099396E1,8.095037E2],"tree_param":{"num_deleted":"0","num_feature":"19","num_nodes":"15","size_leaf_vector":"1"}},{"base_weights":[-2.868349E-3,-2.3937988E-1,6.332531E-1,-5.0614196E-1,1.8426146E-1,7.3048997E-1,-1.4025003E-1,-2.8289393E-2,8.772816E-3,2.3011792E-2,-8.127506E-3,-1.1923774E-2,3.7282266E-2,2.2165768E-2,-3.278339E-2],"categories":[],"categories_nodes":[],"categories_segments":[],"categories_sizes":[],"default_left":[0,0,0,0,0,0,0,0,0,0,0,0,0,0,0],"id":56,"left_children":[1,3,5,7,9,11,13,-1,-1,-1,-1,-1,-1,-1,-1],"loss_changes":[2.1993393E2,1.2052118E2,2.9902374E1,2.669342E1,3.955333E1,5.3487244E0,1.3851021E1,0E0,0E0,0E0,0E0,0E0,0E0,0E0,0E0],"parents":[2147483647,0,0,1,1,2,2,3,3,4,4,5,5,6,6],"right_children":[2,4,6,8,10,12,14,-1,-1,-1,-1,-1,-1,-1,-1],"split_conditions":[5.81027E-3,8.333333E-1,3.478261E-1,7.414281E-1,1.0289798E-1,1.3259059E-1,5.8710072E-2,-2.8289393E-2,8.772816E-3,2.3011792E-2,-8.127506E-3,-1.1923774E-2,3.7282266E-2,2.2165768E-2,-3.278339E-2],"split_indices":[6,7,16,17,2,17,1,0,0,0,0,0,0,0,0],"split_type":[0,0,0,0,0,0,0,0,0,0,0,0,0,0,0],"sum_hessian":[1.4598325E3,1.0646257E3,3.9520682E2,6.5314996E2,4.1147577E2,3.5112283E2,4.408397E1,6.00749E2,5.2400948E1,2.289569E2,1.8251888E2,5.180307E0,3.4594254E2,2.0740776E1,2.3343193E1],"tree_param":{"num_deleted":"0","num_feature":"19","num_nodes":"15","size_leaf_vector":"1"}},{"base_weights":[8.373954E-4,-2.4418475E-1,5.6970555E-1,3.2283953E-1,-3.626108E-1,6.727367E-1,-4.5714024E-1,3.520667E-2,-2.5985718E-2,-2.7217904E-2,-1.096538E-2,3.495231E-2,6.013736E-3,3.317526E-2,-2.731795E-2],"categories":[],"categories_nodes":[],"categories_segments":[],"categories_sizes":[],"default_left":[0,0,0,0,0,0,0,0,0,0,0,0,0,0,0],"id":57,"left_children":[1,3,5,7,9,11,13,-1,-1,-1,-1,-1,-1,-1,-1],"loss_changes":[2.0190889E2,6.810536E1,4.6444717E1,5.673302E1,2.1706863E1,5.6823883E0,4.397978E0,0E0,0E0,0E0,0E0,0E0,0E0,0E0,0E0],"parents":[2147483647,0,0,1,1,2,2,3,3,4,4,5,5,6,6],"right_children":[2,4,6,8,10,12,14,-1,-1,-1,-1,-1,-1,-1,-1],"split_conditions":[1.8181819E-1,4.108158E-1,5.014377E-1,5.81027E-3,7.4074075E-2,9.6768844E-1,7.2462016E-1,3.520667E-2,-2.5985718E-2,-2.7217904E-2,-1.096538E-2,3.495231E-2,6.013736E-3,3.317526E-2,-2.731795E-2],"split_indices":[1,7,6,6,8,0,11,0,0,0,0,0,0,0,0],"split_type":[0,0,0,0,0,0,0,0,0,0,0,0,0,0,0],"sum_hessian":[1.4465686E3,1.0114772E3,4.3509134E2,1.7445587E2,8.370213E2,3.9572968E2,3.936168E1,1.2021666E2,5.423922E1,3.677791E2,4.692422E2,3.7748752E2,1.8242142E1,2.4279692E0,3.693371E1],"tree_param":{"num_deleted":"0","num_feature":"19","num_nodes":"15","size_leaf_vector":"1"}},{"base_weights":[2.3782917E-3,-5.017393E-1,2.6060426E-1,-5.3257895E-1,-1.2460298E-1,-2.2614859E-1,3.905238E-1,-2.8731072E-2,-1.4603189E-2,2.8089574E-2,-2.9107422E-2,-2.2692507E-2,6.9632973E-3,-2.0772493E-2,2.2307402E-2],"categories":[],"categories_nodes":[],"categories_segments":[],"categories_sizes":[],"default_left":[0,0,0,0,0,0,0,0,0,0,0,0,0,0,0],"id":58,"left_children":[1,3,5,7,9,11,13,-1,-1,-1,-1,-1,-1,-1,-1],"loss_changes":[1.9381241E2,5.799179E0,6.2348618E1,4.543152E0,1.2709465E1,1.7374279E1,3.5040916E1,0E0,0E0,0E0,0E0,0E0,0E0,0E0,0E0],"parents":[2147483647,0,0,1,1,2,2,3,3,4,4,5,5,6,6],"right_children":[2,4,6,8,10,12,14,-1,-1,-1,-1,-1,-1,-1,-1],"split_conditions":[2.7995293E-3,8.947763E-1,5.225916E-1,5.766887E-1,2.8226203E-1,5.8748715E-2,2.1258003E-1,-2.8731072E-2,-1.4603189E-2,2.8089574E-2,-2.9107422E-2,-2.2692507E-2,6.9632973E-3,-2.0772493E-2,2.2307402E-2],"split_indices":[9,16,16,2,1,2,10,0,0,0,0,0,0,0,0],"split_type":[0,0,0,0,0,0,0,0,0,0,0,0,0,0,0],"sum_hessian":[1.4868416E3,5.033132E2,9.8352844E2,4.6488586E2,3.842734E1,2.0705214E2,7.7647626E2,3.9453183E2,7.0354034E1,1.5278783E1,2.3148558E1,1.27414215E2,7.963792E1,4.971122E1,7.267651E2],"tree_param":{"num_deleted":"0","num_feature":"19","num_nodes":"15","size_leaf_vector":"1"}},{"base_weights":[-3.306133E-3,5.6091446E-1,-2.5756693E-1,6.6290236E-1,-1.5286823E-1,-4.349093E-1,4.2771047E-1,-1.2121743E-2,3.4861725E-2,-3.0793378E-2,3.4555178E-2,-2.5957167E-2,1.5209432E-2,2.7644128E-2,-1.798213E-2],"categories":[],"categories_nodes":[],"categories_segments":[],"categories_sizes":[],"default_left":[0,0,0,0,0,0,0,0,0,0,0,0,0,0,0],"id":59,"left_children":[1,3,5,7,9,11,13,-1,-1,-1,-1,-1,-1,-1,-1],"loss_changes":[2.0628696E2,3.2619843E1,1.20650406E2,1.2323441E1,2.2565674E1,4.921364E1,2.0332508E1,0E0,0E0,0E0,0E0,0E0,0E0,0E0,0E0],"parents":[2147483647,0,0,1,1,2,2,3,3,4,4,5,5,6,6],"right_children":[2,4,6,8,10,12,14,-1,-1,-1,-1,-1,-1,-1,-1],"split_conditions":[2.3913044E-1,2.840909E-1,9.7029656E-1,1.0912306E-1,8.151399E-1,1E0,4.118714E-1,-1.2121743E-2,3.4861725E-2,-3.0793378E-2,3.4555178E-2,-2.5957167E-2,1.5209432E-2,2.7644128E-2,-1.798213E-2],"split_indices":[16,12,9,7,7,7,3,0,0,0,0,0,0,0,0],"split_type":[0,0,0,0,0,0,0,0,0,0,0,0,0,0,0],"sum_hessian":[1.4359419E3,4.4569992E2,9.90242E2,3.9004074E2,5.5659172E1,7.869525E2,2.0328947E2,1.4029243E1,3.760115E2,3.6116234E1,1.9542938E1,7.067076E2,8.024494E1,1.7566098E2,2.7628496E1],"tree_param":{"num_deleted":"0","num_feature":"19","num_nodes":"15","size_leaf_vector":"1"}},{"base_weights":[9.521774E-4,3.6224478E-1,-3.7013042E-1,4.8098633E-1,-3.9671177E-1,-4.069784E-1,3.52014E-2,3.3743057E-2,2.8864488E-3,-2.5980754E-2,3.170226E-2,-2.5174728E-2,-6.5470035E-3],"categories":[],"categories_nodes":[],"categories_segments":[],"categories_sizes":[],"default_left":[0,0,0,0,0,0,0,0,0,0,0,0,0],"id":60,"left_children":[1,3,5,7,9,11,-1,-1,-1,-1,-1,-1,-1],"loss_changes":[1.9095038E2,6.522573E1,2.8096397E1,5.120459E1,1.2767022E1,1.8049286E1,0E0,0E0,0E0,0E0,0E0,0E0,0E0],"parents":[2147483647,0,0,1,1,2,2,3,3,4,4,5,5],"right_children":[2,4,6,8,10,12,-1,-1,-1,-1,-1,-1,-1],"split_conditions":[7.0630777E-1,5.81027E-3,4.5454547E-1,8.059638E-1,3.614423E-1,6.666667E-1,3.52014E-2,3.3743057E-2,2.8864488E-3,-2.5980754E-2,3.170226E-2,-2.5174728E-2,-6.5470035E-3],"split_indices":[7,6,1,16,1,3,0,0,0,0,0,0,0],"split_type":[0,0,0,0,0,0,0,0,0,0,0,0,0],"sum_hessian":[1.4222651E3,7.206507E2,7.016145E2,6.234724E2,9.717829E1,6.7894507E2,2.2669437E1,4.2719806E2,1.9627434E2,8.726862E1,9.909669E0,5.02443E2,1.7650206E2],"tree_param":{"num_deleted":"0","num_feature":"19","num_nodes":"13","size_leaf_vector":"1"}},{"base_weights":[2.461057E-3,-4.0823886E-1,3.0573934E-1,-5.046553E-1,1.0534194E-1,-3.5330135E-1,4.1146475E-1,-2.8552184E-2,-1.6791835E-2,3.367328E-2,-2.7030943E-2,-2.4172524E-2,3.637549E-2,-1.9265655E-2,2.2969889E-2],"categories":[],"categories_nodes":[],"categories_segments":[],"categories_sizes":[],"default_left":[0,0,0,0,0,0,0,0,0,0,0,0,0,0,0],"id":61,"left_children":[1,3,5,7,9,11,13,-1,-1,-1,-1,-1,-1,-1,-1],"loss_changes":[1.82811E2,3.0924438E1,5.8970825E1,5.6930084E0,3.6830894E1,1.6845215E1,2.798085E1,0E0,0E0,0E0,0E0,0E0,0E0,0E0,0E0],"parents":[2147483647,0,0,1,1,2,2,3,3,4,4,5,5,6,6],"right_children":[2,4,6,8,10,12,14,-1,-1,-1,-1,-1,-1,-1,-1],"split_conditions":[1.08144514E-1,8.059638E-1,2.2554657E-1,7.246212E-2,2.5752723E-1,3.8333333E-1,4.0443543E-1,-2.8552184E-2,-1.6791835E-2,3.367328E-2,-2.7030943E-2,-2.4172524E-2,3.637549E-2,-1.9265655E-2,2.2969889E-2],"split_indices":[9,16,10,2,1,13,7,0,0,0,0,0,0,0,0],"split_type":[0,0,0,0,0,0,0,0,0,0,0,0,0,0,0],"sum_hessian":[1.4656948E3,6.224398E2,8.4325507E2,5.2407135E2,9.83685E1,1.1625241E2,7.270026E2,3.7443942E2,1.496319E2,5.2314888E1,4.605361E1,1.04251366E2,1.2001043E1,4.0854275E1,6.861484E2],"tree_param":{"num_deleted":"0","num_feature":"19","num_nodes":"15","size_leaf_vector":"1"}},{"base_weights":[-3.5159783E-3,-2.1179327E-1,6.627524E-1,-4.5785865E-1,1.7601117E-1,7.0686877E-1,-3.638715E-1,-2.7171612E-2,1.0841507E-2,2.1948943E-2,-7.5886594E-3,-5.353322E-3,3.6163315E-2,4.1945893E-2,-3.0555576E-2],"categories":[],"categories_nodes":[],"categories_segments":[],"categories_sizes":[],"default_left":[0,0,0,0,0,0,0,0,0,0,0,0,0,0,0],"id":62,"left_children":[1,3,5,7,9,11,13,-1,-1,-1,-1,-1,-1,-1,-1],"loss_changes":[1.9609177E2,1.0280957E2,1.54991455E1,3.816034E1,3.615113E1,4.388489E0,4.83237E0,0E0,0E0,0E0,0E0,0E0,0E0,0E0,0E0],"parents":[2147483647,0,0,1,1,2,2,3,3,4,4,5,5,6,6],"right_children":[2,4,6,8,10,12,14,-1,-1,-1,-1,-1,-1,-1,-1],"split_conditions":[5.014377E-1,8.230557E-1,3.9130434E-1,7.414281E-1,1.0289798E-1,9.259259E-2,2.2223979E-1,-2.7171612E-2,1.0841507E-2,2.1948943E-2,-7.5886594E-3,-5.353322E-3,3.6163315E-2,4.1945893E-2,-3.0555576E-2],"split_indices":[6,7,16,17,2,7,3,0,0,0,0,0,0,0,0],"split_type":[0,0,0,0,0,0,0,0,0,0,0,0,0,0,0],"sum_hessian":[1.4110732E3,1.075539E3,3.3553427E2,6.579091E2,4.1762982E2,3.220083E2,1.3525967E1,5.840288E2,7.3880295E1,2.3153763E2,1.8609218E2,6.2498755E0,3.1575842E2,1.8982253E0,1.1627741E1],"tree_param":{"num_deleted":"0","num_feature":"19","num_nodes":"15","size_leaf_vector":"1"}},{"base_weights":[8.543897E-4,-2.3481381E-1,5.493358E-1,3.075251E-1,-3.491113E-1,6.473302E-1,-4.4586077E-1,3.3265986E-2,-2.5259582E-2,-2.6660562E-2,-1.0352634E-2,1.865231E-2,3.5109237E-2,3.219141E-2,-2.6836101E-2],"categories":[],"categories_nodes":[],"categories_segments":[],"categories_sizes":[],"default_left":[0,0,0,0,0,0,0,0,0,0,0,0,0,0,0],"id":63,"left_children":[1,3,5,7,9,11,13,-1,-1,-1,-1,-1,-1,-1,-1],"loss_changes":[1.8111523E2,6.08598E1,4.1356674E1,5.009748E1,2.107196E1,5.5121155E0,4.1416807E0,0E0,0E0,0E0,0E0,0E0,0E0,0E0,0E0],"parents":[2147483647,0,0,1,1,2,2,3,3,4,4,5,5,6,6],"right_children":[2,4,6,8,10,12,14,-1,-1,-1,-1,-1,-1,-1,-1],"split_conditions":[1.8181819E-1,4.108158E-1,5.014377E-1,5.81027E-3,7.4074075E-2,2.7272728E-1,7.2462016E-1,3.3265986E-2,-2.5259582E-2,-2.6660562E-2,-1.0352634E-2,1.865231E-2,3.5109237E-2,3.219141E-2,-2.6836101E-2],"split_indices":[1,7,6,6,8,1,11,0,0,0,0,0,0,0,0],"split_type":[0,0,0,0,0,0,0,0,0,0,0,0,0,0,0],"sum_hessian":[1.3991763E3,9.79068E2,4.2010822E2,1.7012732E2,8.089407E2,3.827676E2,3.734061E1,1.18249794E2,5.1877533E1,3.511355E2,4.578052E2,6.50924E1,3.176752E2,2.405529E0,3.493508E1],"tree_param":{"num_deleted":"0","num_feature":"19","num_nodes":"15","size_leaf_vector":"1"}},{"base_weights":[2.8081583E-3,-4.8958418E-1,2.4453278E-1,-5.2093613E-1,-1.167739E-1,-1.6798028E-1,3.833427E-1,-2.8251028E-2,-1.3812387E-2,2.705506E-2,-2.8695598E-2,-2.4825143E-2,4.6098265E-3,-2.5948722E-2,2.1162285E-2],"categories":[],"categories_nodes":[],"categories_segments":[],"categories_sizes":[],"default_left":[0,0,0,0,0,0,0,0,0,0,0,0,0,0,0],"id":64,"left_children":[1,3,5,7,9,11,13,-1,-1,-1,-1,-1,-1,-1,-1],"loss_changes":[1.7226752E2,5.5094986E0,5.5651234E1,4.582779E0,1.1816219E1,2.0996336E1,2.6382896E1,0E0,0E0,0E0,0E0,0E0,0E0,0E0,0E0],"parents":[2147483647,0,0,1,1,2,2,3,3,4,4,5,5,6,6],"right_children":[2,4,6,8,10,12,14,-1,-1,-1,-1,-1,-1,-1,-1],"split_conditions":[2.7995293E-3,8.947763E-1,5.708721E-1,5.766887E-1,2.8226203E-1,3.916036E-3,2.0231843E-1,-2.8251028E-2,-1.3812387E-2,2.705506E-2,-2.8695598E-2,-2.4825143E-2,4.6098265E-3,-2.5948722E-2,2.1162285E-2],"split_indices":[9,16,16,2,1,2,10,0,0,0,0,0,0,0,0],"split_type":[0,0,0,0,0,0,0,0,0,0,0,0,0,0,0],"sum_hessian":[1.4453363E3,4.7557208E2,9.697643E2,4.3831418E2,3.725791E1,2.4411049E2,7.2565375E2,3.702913E2,6.802288E1,1.5199862E1,2.2058052E1,1.0748366E2,1.3662683E2,3.022294E1,6.9543085E2],"tree_param":{"num_deleted":"0","num_feature":"19","num_nodes":"15","size_leaf_vector":"1"}},{"base_weights":[-3.785288E-3,-2.0711051E-1,6.479572E-1,-3.5952523E-1,4.094221E-1,6.9169277E-1,-3.6099374E-1,1.6238801E-2,-2.2745466E-2,2.649334E-2,-1.7920382E-2,5.677542E-3,3.5793465E-2,4.0957388E-2,-3.038618E-2],"categories":[],"categories_nodes":[],"categories_segments":[],"categories_sizes":[],"default_left":[0,0,0,0,0,0,0,0,0,0,0,0,0,0,0],"id":65,"left_children":[1,3,5,7,9,11,13,-1,-1,-1,-1,-1,-1,-1,-1],"loss_changes":[1.842008E2,9.9705376E1,1.4835205E1,5.5629303E1,1.9654385E1,4.351593E0,4.6877413E0,0E0,0E0,0E0,0E0,0E0,0E0,0E0,0E0],"parents":[2147483647,0,0,1,1,2,2,3,3,4,4,5,5,6,6],"right_children":[2,4,6,8,10,12,14,-1,-1,-1,-1,-1,-1,-1,-1],"split_conditions":[5.014377E-1,9.5377374E-1,3.9130434E-1,4.938612E-1,4.118714E-1,1.2962963E-1,2.2223979E-1,1.6238801E-2,-2.2745466E-2,2.649334E-2,-1.7920382E-2,5.677542E-3,3.5793465E-2,4.0957388E-2,-3.038618E-2],"split_indices":[6,9,16,18,3,7,3,0,0,0,0,0,0,0,0],"split_type":[0,0,0,0,0,0,0,0,0,0,0,0,0,0,0],"sum_hessian":[1.3880175E3,1.0584829E3,3.295345E2,8.4901294E2,2.0946997E2,3.1614484E2,1.3389662E1,1.03571175E2,7.454418E2,1.8133499E2,2.8134981E1,1.2918413E1,3.032264E2,1.9141262E0,1.1475535E1],"tree_param":{"num_deleted":"0","num_feature":"19","num_nodes":"15","size_leaf_vector":"1"}},{"base_weights":[1.0242313E-3,-2.2950844E-1,5.392527E-1,8.6776435E-2,-4.2176315E-1,6.344428E-1,-4.3938962E-1,3.8560655E-2,-3.3990105E-3,-2.7053714E-2,-9.024712E-3,1.8121578E-2,3.447866E-2,3.1562053E-2,-2.6546378E-2],"categories":[],"categories_nodes":[],"categories_segments":[],"categories_sizes":[],"default_left":[0,0,0,0,0,0,0,0,0,0,0,0,0,0,0],"id":66,"left_children":[1,3,5,7,9,11,13,-1,-1,-1,-1,-1,-1,-1,-1],"loss_changes":[1.7090807E2,5.8676807E1,3.87574E1,3.8756943E1,1.7172638E1,5.4012756E0,3.9814372E0,0E0,0E0,0E0,0E0,0E0,0E0,0E0,0E0],"parents":[2147483647,0,0,1,1,2,2,3,3,4,4,5,5,6,6],"right_children":[2,4,6,8,10,12,14,-1,-1,-1,-1,-1,-1,-1,-1],"split_conditions":[1.8181819E-1,7.0630777E-1,5.014377E-1,1.8786351E-1,5.555556E-1,2.7272728E-1,7.2462016E-1,3.8560655E-2,-3.3990105E-3,-2.7053714E-2,-9.024712E-3,1.8121578E-2,3.447866E-2,3.1562053E-2,-2.6546378E-2],"split_indices":[1,7,6,13,3,1,11,0,0,0,0,0,0,0,0],"split_type":[0,0,0,0,0,0,0,0,0,0,0,0,0,0,0],"sum_hessian":[1.3754132E3,9.6336194E2,4.120512E2,3.644089E2,5.9895306E2,3.7584537E2,3.6205837E1,6.646651E1,2.979424E2,3.99936E2,1.9901703E2,6.461434E1,3.1123102E2,2.38735E0,3.3818485E1],"tree_param":{"num_deleted":"0","num_feature":"19","num_nodes":"15","size_leaf_vector":"1"}},{"base_weights":[2.7143715E-3,-3.9606777E-1,2.870862E-1,-4.9269807E-1,1.04677536E-1,-3.4516767E-1,3.8722354E-1,-2.8098905E-2,-1.6026067E-2,3.473089E-2,-2.397434E-2,-2.3704736E-2,3.492079E-2,-1.855706E-2,2.1613041E-2],"categories":[],"categories_nodes":[],"categories_segments":[],"categories_sizes":[],"default_left":[0,0,0,0,0,0,0,0,0,0,0,0,0,0,0],"id":67,"left_children":[1,3,5,7,9,11,13,-1,-1,-1,-1,-1,-1,-1,-1],"loss_changes":[1.617779E2,2.8785645E1,5.285649E1,5.759659E0,3.3720936E1,1.5721423E1,2.4729828E1,0E0,0E0,0E0,0E0,0E0,0E0,0E0,0E0],"parents":[2147483647,0,0,1,1,2,2,3,3,4,4,5,5,6,6],"right_children":[2,4,6,8,10,12,14,-1,-1,-1,-1,-1,-1,-1,-1],"split_conditions":[1.08144514E-1,8.059638E-1,2.2554657E-1,7.246212E-2,1.77512E-1,3.8333333E-1,4.0443543E-1,-2.8098905E-2,-1.6026067E-2,3.473089E-2,-2.397434E-2,-2.3704736E-2,3.492079E-2,-1.855706E-2,2.1613041E-2],"split_indices":[9,16,10,2,1,13,7,0,0,0,0,0,0,0,0],"split_type":[0,0,0,0,0,0,0,0,0,0,0,0,0,0,0],"sum_hessian":[1.4245798E3,5.928366E2,8.317433E2,4.9695398E2,9.588259E1,1.1338686E2,7.1835645E2,3.5275098E2,1.4420302E2,4.761138E1,4.8271214E1,1.0140476E2,1.1982104E1,3.9863884E1,6.7849255E2],"tree_param":{"num_deleted":"0","num_feature":"19","num_nodes":"15","size_leaf_vector":"1"}},{"base_weights":[-3.8655547E-3,5.2866924E-1,-2.4385956E-1,6.2676E-1,-1.4979427E-1,-4.1698828E-1,4.0153003E-1,-1.1968829E-2,3.300397E-2,-3.02654E-2,3.241375E-2,-2.5227476E-2,1.5441556E-2,2.5942782E-2,-1.7146489E-2],"categories":[],"categories_nodes":[],"categories_segments":[],"categories_sizes":[],"default_left":[0,0,0,0,0,0,0,0,0,0,0,0,0,0,0],"id":68,"left_children":[1,3,5,7,9,11,13,-1,-1,-1,-1,-1,-1,-1,-1],"loss_changes":[1.7467702E2,2.8351143E1,1.0543794E2,1.0869247E1,2.0183084E1,4.739868E1,1.7628082E1,0E0,0E0,0E0,0E0,0E0,0E0,0E0,0E0],"parents":[2147483647,0,0,1,1,2,2,3,3,4,4,5,5,6,6],"right_children":[2,4,6,8,10,12,14,-1,-1,-1,-1,-1,-1,-1,-1],"split_conditions":[2.3913044E-1,2.840909E-1,9.7029656E-1,1.0912306E-1,8.151399E-1,1E0,4.118714E-1,-1.1968829E-2,3.300397E-2,-3.02654E-2,3.241375E-2,-2.5227476E-2,1.5441556E-2,2.5942782E-2,-1.7146489E-2],"split_indices":[16,12,9,7,7,7,3,0,0,0,0,0,0,0,0],"split_type":[0,0,0,0,0,0,0,0,0,0,0,0,0,0,0],"sum_hessian":[1.364736E3,4.2359555E2,9.411404E2,3.701555E2,5.3440063E1,7.423543E2,1.9878607E2,1.3482943E1,3.5667255E2,3.4175346E1,1.9264715E1,6.627112E2,7.964314E1,1.7198463E2,2.6801441E1],"tree_param":{"num_deleted":"0","num_feature":"19","num_nodes":"15","size_leaf_vector":"1"}},{"base_weights":[9.5194543E-4,-2.2398056E-1,5.280314E-1,8.4484965E-2,-4.1439426E-1,6.2084115E-1,-4.3446E-1,3.7794966E-2,-3.3056014E-3,-2.6782526E-2,-8.629377E-3,3.24172E-2,3.9020411E-3,3.075695E-2,-2.6305897E-2],"categories":[],"categories_nodes":[],"categories_segments":[],"categories_sizes":[],"default_left":[0,0,0,0,0,0,0,0,0,0,0,0,0,0,0],"id":69,"left_children":[1,3,5,7,9,11,13,-1,-1,-1,-1,-1,-1,-1,-1],"loss_changes":[1.6039946E2,5.573205E1,3.6418373E1,3.6730244E1,1.7103897E1,5.465393E0,3.8040624E0,0E0,0E0,0E0,0E0,0E0,0E0,0E0,0E0],"parents":[2147483647,0,0,1,1,2,2,3,3,4,4,5,5,6,6],"right_children":[2,4,6,8,10,12,14,-1,-1,-1,-1,-1,-1,-1,-1],"split_conditions":[1.8181819E-1,7.0630777E-1,5.014377E-1,1.8786351E-1,5.555556E-1,9.6768844E-1,7.2462016E-1,3.7794966E-2,-3.3056014E-3,-2.6782526E-2,-8.629377E-3,3.24172E-2,3.9020411E-3,3.075695E-2,-2.6305897E-2],"split_indices":[1,7,6,13,3,0,11,0,0,0,0,0,0,0,0],"split_type":[0,0,0,0,0,0,0,0,0,0,0,0,0,0,0],"sum_hessian":[1.3509302E3,9.472597E2,4.0367044E2,3.6176523E2,5.8549445E2,3.684929E2,3.5177547E1,6.5541016E1,2.9622424E2,3.8914093E2,1.9635355E2,3.505373E2,1.79556E1,2.3665302E0,3.2811016E1],"tree_param":{"num_deleted":"0","num_feature":"19","num_nodes":"15","size_leaf_vector":"1"}},{"base_weights":[2.7888515E-3,-4.7759068E-1,2.288647E-1,-5.116352E-1,-1.169387E-1,-3.2549232E-1,3.2332116E-1,-2.7942806E-2,-1.2969059E-2,2.7992556E-2,-2.82941E-2,-1.8509507E-2,4.4962414E-2,1.8607033E-2,-2.5905108E-2],"categories":[],"categories_nodes":[],"categories_segments":[],"categories_sizes":[],"default_left":[0,0,0,0,0,0,0,0,0,0,0,0,0,0,0],"id":70,"left_children":[1,3,5,7,9,11,13,-1,-1,-1,-1,-1,-1,-1,-1],"loss_changes":[1.5258139E2,5.460556E0,5.0129433E1,4.7451553E0,1.2493867E1,7.973963E0,3.374366E1,0E0,0E0,0E0,0E0,0E0,0E0,0E0,0E0],"parents":[2147483647,0,0,1,1,2,2,3,3,4,4,5,5,6,6],"right_children":[2,4,6,8,10,12,14,-1,-1,-1,-1,-1,-1,-1,-1],"split_conditions":[2.7995293E-3,8.711446E-1,1.1405377E-1,5.766887E-1,2.8226203E-1,3.026316E-1,2.7272728E-1,-2.7942806E-2,-1.2969059E-2,2.7992556E-2,-2.82941E-2,-1.8509507E-2,4.4962414E-2,1.8607033E-2,-2.5905108E-2],"split_indices":[9,16,13,2,1,17,1,0,0,0,0,0,0,0,0],"split_type":[0,0,0,0,0,0,0,0,0,0,0,0,0,0,0],"sum_hessian":[1.4029502E3,4.4860815E2,9.5434204E2,4.0953098E2,3.907717E1,1.3858025E2,8.157618E2,3.439327E2,6.559827E1,1.5485489E1,2.3591684E1,1.3437392E2,4.206335E0,7.7155383E2,4.4207962E1],"tree_param":{"num_deleted":"0","num_feature":"19","num_nodes":"15","size_leaf_vector":"1"}},{"base_weights":[-3.8797476E-3,-1.9966948E-1,6.2577975E-1,-4.4263303E-1,1.6680568E-1,6.68901E-1,-3.52375E-1,-2.6471918E-2,1.08349575E-2,2.2275823E-3,4.4050526E-2,-6.042657E-3,3.429109E-2,4.0435154E-2,-3.0100256E-2],"categories":[],"categories_nodes":[],"categories_segments":[],"categories_sizes":[],"default_left":[0,0,0,0,0,0,0,0,0,0,0,0,0,0,0],"id":71,"left_children":[1,3,5,7,9,11,13,-1,-1,-1,-1,-1,-1,-1,-1],"loss_changes":[1.6543315E2,9.121648E1,1.3661125E1,3.535945E1,3.5655575E1,4.1613464E0,4.571929E0,0E0,0E0,0E0,0E0,0E0,0E0,0E0,0E0],"parents":[2147483647,0,0,1,1,2,2,3,3,4,4,5,5,6,6],"right_children":[2,4,6,8,10,12,14,-1,-1,-1,-1,-1,-1,-1,-1],"split_conditions":[5.014377E-1,8.230557E-1,3.9130434E-1,7.414281E-1,9.4941473E-1,9.259259E-2,2.2223979E-1,-2.6471918E-2,1.08349575E-2,2.2275823E-3,4.4050526E-2,-6.042657E-3,3.429109E-2,4.0435154E-2,-3.0100256E-2],"split_indices":[6,7,16,17,0,7,3,0,0,0,0,0,0,0,0],"split_type":[0,0,0,0,0,0,0,0,0,0,0,0,0,0,0],"sum_hessian":[1.3399072E3,1.0226132E3,3.17294E2,6.1480536E2,4.0780786E2,3.0419974E2,1.30942745E1,5.4345325E2,7.135211E1,3.491111E2,5.8696735E1,6.252022E0,2.979477E2,1.9207746E0,1.11735E1],"tree_param":{"num_deleted":"0","num_feature":"19","num_nodes":"15","size_leaf_vector":"1"}},{"base_weights":[6.485818E-4,3.4252784E-1,-3.3204225E-1,4.5929247E-1,-3.891228E-1,-3.7143144E-1,3.3062156E-2,3.239864E-2,2.8810508E-3,-2.534594E-2,2.951472E-2,-2.3598766E-2,-4.998814E-3],"categories":[],"categories_nodes":[],"categories_segments":[],"categories_sizes":[],"default_left":[0,0,0,0,0,0,0,0,0,0,0,0,0],"id":72,"left_children":[1,3,5,7,9,11,-1,-1,-1,-1,-1,-1,-1],"loss_changes":[1.512129E2,5.619362E1,2.660727E1,4.285045E1,1.0772614E1,1.7658585E1,0E0,0E0,0E0,0E0,0E0,0E0,0E0],"parents":[2147483647,0,0,1,1,2,2,3,3,4,4,5,5],"right_children":[2,4,6,8,10,12,-1,-1,-1,-1,-1,-1,-1],"split_conditions":[6.8844676E-1,5.81027E-3,4.5454547E-1,8.059638E-1,3.614423E-1,6.666667E-1,3.3062156E-2,3.239864E-2,2.8810508E-3,-2.534594E-2,2.951472E-2,-2.3598766E-2,-4.998814E-3],"split_indices":[7,6,1,16,1,3,0,0,0,0,0,0,0],"split_type":[0,0,0,0,0,0,0,0,0,0,0,0,0],"sum_hessian":[1.3274602E3,6.5467474E2,6.7278546E2,5.64895E2,8.9779724E1,6.4772565E2,2.5059803E1,3.839336E2,1.809614E2,8.057168E1,9.208045E0,4.7211942E2,1.7560625E2],"tree_param":{"num_deleted":"0","num_feature":"19","num_nodes":"13","size_leaf_vector":"1"}},{"base_weights":[2.99852E-3,-4.7194442E-1,2.2150715E-1,-5.062321E-1,-1.1191141E-1,-2.1536684E-1,3.3650598E-1,-2.7745122E-2,-1.2465993E-2,2.7316904E-2,-2.8064558E-2,-2.1621296E-2,5.7865256E-3,-2.6245577E-2,1.893346E-2],"categories":[],"categories_nodes":[],"categories_segments":[],"categories_sizes":[],"default_left":[0,0,0,0,0,0,0,0,0,0,0,0,0,0,0],"id":73,"left_children":[1,3,5,7,9,11,13,-1,-1,-1,-1,-1,-1,-1,-1],"loss_changes":[1.4381157E2,5.3337173E0,4.7754475E1,4.8432846E0,1.1917718E1,1.43070965E1,2.7500801E1,0E0,0E0,0E0,0E0,0E0,0E0,0E0,0E0],"parents":[2147483647,0,0,1,1,2,2,3,3,4,4,5,5,6,6],"right_children":[2,4,6,8,10,12,14,-1,-1,-1,-1,-1,-1,-1,-1],"split_conditions":[2.7995293E-3,8.711446E-1,5.225916E-1,5.766887E-1,2.8226203E-1,5.8748715E-2,2.0545648E-1,-2.7745122E-2,-1.2465993E-2,2.7316904E-2,-2.8064558E-2,-2.1621296E-2,5.7865256E-3,-2.6245577E-2,1.893346E-2],"split_indices":[9,16,16,2,1,2,10,0,0,0,0,0,0,0,0],"split_type":[0,0,0,0,0,0,0,0,0,0,0,0,0,0,0],"sum_hessian":[1.3837391E3,4.3565482E2,9.4808435E2,3.9740225E2,3.8252556E1,1.9737921E2,7.5070514E2,3.331325E2,6.426973E1,1.5432029E1,2.2820528E1,1.1903611E2,7.83431E1,3.4495434E1,7.162097E2],"tree_param":{"num_deleted":"0","num_feature":"19","num_nodes":"15","size_leaf_vector":"1"}},{"base_weights":[-3.7996494E-3,5.102748E-1,-2.3459728E-1,6.0537684E-1,-1.447852E-1,-4.0588397E-1,3.8892958E-1,-1.1701584E-2,3.1914193E-2,-2.97752E-2,3.1013047E-2,-2.6074773E-2,7.194619E-3,2.5062313E-2,-1.650054E-2],"categories":[],"categories_nodes":[],"categories_segments":[],"categories_sizes":[],"default_left":[0,0,0,0,0,0,0,0,0,0,0,0,0,0,0],"id":74,"left_children":[1,3,5,7,9,11,13,-1,-1,-1,-1,-1,-1,-1,-1],"loss_changes":[1.5667972E2,2.5578163E1,9.74938E1,1.0024216E1,1.8534555E1,4.5549583E1,1.6066172E1,0E0,0E0,0E0,0E0,0E0,0E0,0E0,0E0],"parents":[2147483647,0,0,1,1,2,2,3,3,4,4,5,5,6,6],"right_children":[2,4,6,8,10,12,14,-1,-1,-1,-1,-1,-1,-1,-1],"split_conditions":[2.3913044E-1,2.840909E-1,9.7029656E-1,1.0912306E-1,8.151399E-1,9.4874007E-1,4.118714E-1,-1.1701584E-2,3.1914193E-2,-2.97752E-2,3.1013047E-2,-2.6074773E-2,7.194619E-3,2.5062313E-2,-1.650054E-2],"split_indices":[16,12,9,7,7,7,3,0,0,0,0,0,0,0,0],"split_type":[0,0,0,0,0,0,0,0,0,0,0,0,0,0,0],"sum_hessian":[1.3185428E3,4.0817355E2,9.103693E2,3.5649344E2,5.1680107E1,7.144535E2,1.9591577E2,1.32177E1,3.4327573E2,3.266027E1,1.9019838E1,5.903594E2,1.24094154E2,1.6970616E2,2.6209608E1],"tree_param":{"num_deleted":"0","num_feature":"19","num_nodes":"15","size_leaf_vector":"1"}},{"base_weights":[6.931377E-4,-2.1536367E-1,5.1116335E-1,7.864579E-2,-4.0126127E-1,6.001025E-1,-4.2415762E-1,3.643274E-2,-3.2423139E-3,-2.6316037E-2,-7.875385E-3,1.6450047E-2,3.285558E-2,2.993072E-2,-2.587434E-2],"categories":[],"categories_nodes":[],"categories_segments":[],"categories_sizes":[],"default_left":[0,0,0,0,0,0,0,0,0,0,0,0,0,0,0],"id":75,"left_children":[1,3,5,7,9,11,13,-1,-1,-1,-1,-1,-1,-1,-1],"loss_changes":[1.440884E2,5.0201706E1,3.25737E1,3.3289795E1,1.7064919E1,5.2733994E0,3.5859218E0,0E0,0E0,0E0,0E0,0E0,0E0,0E0,0E0],"parents":[2147483647,0,0,1,1,2,2,3,3,4,4,5,5,6,6],"right_children":[2,4,6,8,10,12,14,-1,-1,-1,-1,-1,-1,-1,-1],"split_conditions":[1.8181819E-1,7.0630777E-1,5.014377E-1,1.8786351E-1,5.555556E-1,2.7272728E-1,7.2462016E-1,3.643274E-2,-3.2423139E-3,-2.6316037E-2,-7.875385E-3,1.6450047E-2,3.285558E-2,2.993072E-2,-2.587434E-2],"split_indices":[1,7,6,13,3,1,11,0,0,0,0,0,0,0,0],"split_type":[0,0,0,0,0,0,0,0,0,0,0,0,0,0,0],"sum_hessian":[1.3044454E3,9.1693164E2,3.8751376E2,3.5540765E2,5.61524E2,3.541922E2,3.3321537E1,6.3532387E1,2.9187527E2,3.703527E2,1.9117128E2,6.2717247E1,2.9147498E2,2.3336484E0,3.0987888E1],"tree_param":{"num_deleted":"0","num_feature":"19","num_nodes":"15","size_leaf_vector":"1"}},{"base_weights":[3.33888E-3,-3.8067088E-1,2.6371127E-1,-4.779948E-1,1.0602071E-1,-3.340516E-1,3.5708535E-1,-2.7559547E-2,-1.51460515E-2,3.0482952E-2,-2.5791025E-2,-2.4838947E-2,2.318726E-2,1.2231722E-2,3.306563E-2],"categories":[],"categories_nodes":[],"categories_segments":[],"categories_sizes":[],"default_left":[0,0,0,0,0,0,0,0,0,0,0,0,0,0,0],"id":76,"left_children":[1,3,5,7,9,11,13,-1,-1,-1,-1,-1,-1,-1,-1],"loss_changes":[1.3656065E2,2.6191307E1,4.554882E1,5.7289658E0,2.9373693E1,1.4573175E1,2.393766E1,0E0,0E0,0E0,0E0,0E0,0E0,0E0,0E0],"parents":[2147483647,0,0,1,1,2,2,3,3,4,4,5,5,6,6],"right_children":[2,4,6,8,10,12,14,-1,-1,-1,-1,-1,-1,-1,-1],"split_conditions":[1.08144514E-1,8.059638E-1,2.2554657E-1,7.246212E-2,2.5752723E-1,1.2621401E-1,1.09888755E-1,-2.7559547E-2,-1.51460515E-2,3.0482952E-2,-2.5791025E-2,-2.4838947E-2,2.318726E-2,1.2231722E-2,3.306563E-2],"split_indices":[9,16,10,2,1,14,2,0,0,0,0,0,0,0,0],"split_type":[0,0,0,0,0,0,0,0,0,0,0,0,0,0,0],"sum_hessian":[1.3637999E3,5.508774E2,8.129225E2,4.590907E2,9.178669E1,1.09479324E2,7.034432E2,3.2222446E2,1.3686624E2,5.0724094E1,4.106259E1,9.1245255E1,1.8234068E1,5.149189E2,1.8852432E2],"tree_param":{"num_deleted":"0","num_feature":"19","num_nodes":"15","size_leaf_vector":"1"}},{"base_weights":[-4.2163935E-3,-1.9254725E-1,6.06084E-1,-4.3335503E-1,1.5735316E-1,6.50212E-1,-3.104209E-1,-2.6012694E-2,1.046853E-2,1.039517E-3,3.909307E-2,5.914422E-3,3.365977E-2,4.1089263E-2,-3.0074632E-2],"categories":[],"categories_nodes":[],"categories_segments":[],"categories_sizes":[],"default_left":[0,0,0,0,0,0,0,0,0,0,0,0,0,0,0],"id":77,"left_children":[1,3,5,7,9,11,13,-1,-1,-1,-1,-1,-1,-1,-1],"loss_changes":[1.4900359E2,8.353935E1,1.2565804E1,3.289805E1,3.4488415E1,3.4900665E0,5.345335E0,0E0,0E0,0E0,0E0,0E0,0E0,0E0,0E0],"parents":[2147483647,0,0,1,1,2,2,3,3,4,4,5,5,6,6],"right_children":[2,4,6,8,10,12,14,-1,-1,-1,-1,-1,-1,-1,-1],"split_conditions":[5.014377E-1,8.230557E-1,3.875928E-1,7.414281E-1,9.0709156E-1,1.2962963E-1,2.2223979E-1,-2.6012694E-2,1.046853E-2,1.039517E-3,3.909307E-2,5.914422E-3,3.365977E-2,4.1089263E-2,-3.0074632E-2],"split_indices":[6,7,16,17,0,7,3,0,0,0,0,0,0,0,0],"split_type":[0,0,0,0,0,0,0,0,0,0,0,0,0,0,0],"sum_hessian":[1.2943625E3,9.896529E2,3.0470963E2,5.8607025E2,4.0358264E2,2.909896E2,1.3720041E1,5.1643665E2,6.9633575E1,3.3201364E2,7.1569E1,1.2306943E1,2.7868265E2,2.4329772E0,1.1287064E1],"tree_param":{"num_deleted":"0","num_feature":"19","num_nodes":"15","size_leaf_vector":"1"}},{"base_weights":[4.8313412E-4,-2.105534E-1,5.021358E-1,2.849288E-1,-3.1783053E-1,5.8881456E-1,-4.184069E-1,3.0778468E-2,-2.4345694E-2,-2.5448177E-2,-8.868692E-3,3.085787E-2,2.8172582E-3,2.9423064E-2,-2.5622819E-2],"categories":[],"categories_nodes":[],"categories_segments":[],"categories_sizes":[],"default_left":[0,0,0,0,0,0,0,0,0,0,0,0,0,0,0],"id":78,"left_children":[1,3,5,7,9,11,13,-1,-1,-1,-1,-1,-1,-1,-1],"loss_changes":[1.3589519E2,4.811721E1,3.057528E1,4.1473145E1,1.986168E1,5.214226E0,3.4544597E0,0E0,0E0,0E0,0E0,0E0,0E0,0E0,0E0],"parents":[2147483647,0,0,1,1,2,2,3,3,4,4,5,5,6,6],"right_children":[2,4,6,8,10,12,14,-1,-1,-1,-1,-1,-1,-1,-1],"split_conditions":[1.8181819E-1,4.108158E-1,5.014377E-1,5.81027E-3,7.4074075E-2,9.6768844E-1,7.2462016E-1,3.0778468E-2,-2.4345694E-2,-2.5448177E-2,-8.868692E-3,3.085787E-2,2.8172582E-3,2.9423064E-2,-2.5622819E-2],"split_indices":[1,7,6,6,8,0,11,0,0,0,0,0,0,0,0],"split_type":[0,0,0,0,0,0,0,0,0,0,0,0,0,0,0],"sum_hessian":[1.2816415E3,9.025393E2,3.7910226E2,1.6033626E2,7.42203E2,3.468071E2,3.2295155E1,1.1239231E2,4.7943943E1,3.1327533E2,4.289277E2,3.291288E2,1.767827E1,2.3098273E0,2.9985325E1],"tree_param":{"num_deleted":"0","num_feature":"19","num_nodes":"15","size_leaf_vector":"1"}},{"base_weights":[3.5355329E-3,-4.6130008E-1,2.0865087E-1,-5.624557E-1,-3.3234516E-1,-1.6519663E-1,3.3338746E-1,-2.8502965E-2,-2.115196E-2,-2.1874582E-2,1.7377703E-2,-2.659638E-2,2.4423893E-3,-2.470639E-2,1.8415391E-2],"categories":[],"categories_nodes":[],"categories_segments":[],"categories_sizes":[],"default_left":[0,0,0,0,0,0,0,0,0,0,0,0,0,0,0],"id":79,"left_children":[1,3,5,7,9,11,13,-1,-1,-1,-1,-1,-1,-1,-1],"loss_changes":[1.2839156E2,5.191124E0,4.362414E1,2.2277832E-3,1.3283344E1,1.842681E1,2.043576E1,0E0,0E0,0E0,0E0,0E0,0E0,0E0,0E0],"parents":[2147483647,0,0,1,1,2,2,3,3,4,4,5,5,6,6],"right_children":[2,4,6,8,10,12,14,-1,-1,-1,-1,-1,-1,-1,-1],"split_conditions":[2.7995293E-3,3.478261E-1,5.708721E-1,1E0,5.81027E-3,2.951139E-1,2.0231843E-1,-2.8502965E-2,-2.115196E-2,-2.1874582E-2,1.7377703E-2,-2.659638E-2,2.4423893E-3,-2.470639E-2,1.8415391E-2],